3173 100
，/wP 0.833778 -0.170322 -0.567861 -0.316978 -0.634069 0.756749 0.295138 -0.104582 0.181567 -0.034803 0.033880 0.442573 0.031072 -0.310516 -0.532127 0.078359 -0.097162 -0.308952 0.639103 -0.211877 -0.752011 -0.136661 -0.344635 0.625918 0.405387 -0.178451 0.381215 0.438352 0.472723 0.098633 -0.115611 -0.498701 -0.057216 0.050450 0.140832 0.078165 -0.181273 -0.417300 0.141793 -0.062760 -0.587137 -0.020973 0.639133 0.258405 0.643770 -0.563695 0.321654 -0.079797 -0.397728 0.495965 0.567089 -0.258371 0.203940 -0.933582 0.205743 0.025274 -0.191387 0.442517 0.227309 0.310580 0.175550 0.151124 -0.588627 -0.554716 -0.054628 -0.129328 1.054263 0.253462 -0.191727 0.286466 -0.540506 0.541247 0.729018 0.112542 0.045517 -0.198433 0.002936 0.522513 -0.653023 0.255567 0.338464 0.372374 -0.206906 0.359064 0.865475 -0.297688 -0.598604 0.075529 -0.223594 0.476743 0.841540 0.080369 0.231137 0.456696 -0.216718 0.555680 -0.182485 -0.020795 -0.548781 0.098469
的/uJDE 0.836033 -0.174620 -0.585044 -0.310674 -0.618914 0.762449 0.294850 -0.096657 0.169622 -0.041639 0.017667 0.451407 0.034572 -0.310421 -0.505073 0.070931 -0.099224 -0.285827 0.641872 -0.237632 -0.745326 -0.136095 -0.331920 0.620686 0.416691 -0.175408 0.375954 0.453939 0.455160 0.084820 -0.124917 -0.489223 -0.030096 0.055769 0.131160 0.079024 -0.194364 -0.404043 0.153414 -0.069750 -0.589208 -0.016970 0.609602 0.246050 0.640248 -0.569348 0.312259 -0.076887 -0.381324 0.467096 0.559305 -0.247031 0.194872 -0.917327 0.201910 0.027930 -0.188589 0.440083 0.225375 0.277273 0.174981 0.142540 -0.589046 -0.554485 -0.042737 -0.119456 1.027502 0.264631 -0.198399 0.286200 -0.537440 0.534036 0.695244 0.107322 0.044282 -0.183029 0.025375 0.509721 -0.633691 0.239491 0.330462 0.346938 -0.198236 0.343274 0.816965 -0.276517 -0.575720 0.056818 -0.230582 0.450333 0.817069 0.089494 0.225774 0.454620 -0.213436 0.542602 -0.194327 -0.037709 -0.531981 0.109960
。/wE 0.837042 -0.173886 -0.573157 -0.300676 -0.650024 0.766160 0.306254 -0.080727 0.171530 -0.040445 0.020086 0.440483 0.011509 -0.302642 -0.512902 0.064922 -0.114800 -0.300740 0.635402 -0.231264 -0.772453 -0.146526 -0.328678 0.631371 0.420784 -0.187442 0.375582 0.438661 0.459607 0.107134 -0.104534 -0.507716 -0.031697 0.054676 0.133252 0.083271 -0.203798 -0.406011 0.156667 -0.047368 -0.587731 -0.029566 0.643974 0.264877 0.654377 -0.578222 0.313818 -0.075941 -0.398778 0.480256 0.551571 -0.256121 0.201570 -0.931048 0.205409 0.013694 -0.194659 0.448729 0.241468 0.309007 0.171056 0.169602 -0.589405 -0.570040 -0.033493 -0.115285 1.037289 0.255354 -0.210652 0.286567 -0.563809 0.556368 0.721077 0.105626 0.064587 -0.184027 0.014905 0.518988 -0.666054 0.254073 0.319121 0.354210 -0.186822 0.342711 0.854015 -0.302091 -0.595111 0.055986 -0.217513 0.486910 0.834865 0.083695 0.229475 0.444709 -0.212904 0.560282 -0.181864 -0.038647 -0.550459 0.096541
、/wD 1.002605 -0.027957 -0.664874 -0.344867 -0.407973 0.638475 0.321649 -0.057800 0.147459 -0.177630 -0.200129 0.556844 0.156662 -0.289156 -0.618653 0.155867 -0.206303 -0.127572 0.660383 -0.434793 -0.794997 -0.156362 -0.350338 0.477256 0.529851 -0.032277 0.301324 0.642586 0.370109 -0.021858 -0.179189 -0.618936 -0.045687 0.216901 -0.126946 0.196772 -0.104047 -0.464675 0.122355 -0.020859 -0.545742 -0.128978 0.470835 0.176388 0.609902 -0.754712 0.153308 -0.165445 -0.344819 0.348603 0.539212 -0.186838 0.079205 -1.051855 0.169051 0.219578 -0.105017 0.549847 0.190873 0.120450 0.145035 0.006536 -0.703947 -0.548091 -0.179139 -0.304959 0.962773 0.457815 -0.279992 0.274010 -0.592182 0.416378 0.723113 0.178893 -0.003898 -0.108706 0.124653 0.602477 -0.515556 0.136215 0.386158 0.191142 -0.312863 0.250374 0.749242 -0.249387 -0.484255 -0.073442 -0.364675 0.409995 0.798514 0.197322 0.232863 0.326758 -0.174686 0.309358 -0.286518 -0.177404 -0.614381 0.354906
了/uA 0.877619 -0.176926 -0.619259 -0.321818 -0.646233 0.789416 0.302872 -0.113725 0.183095 -0.038596 0.016260 0.463499 0.043401 -0.317156 -0.543059 0.083979 -0.104297 -0.301068 0.665188 -0.244419 -0.793201 -0.151155 -0.342112 0.639112 0.426173 -0.181481 0.394475 0.476765 0.489783 0.087616 -0.115103 -0.517128 -0.037320 0.066076 0.137763 0.072325 -0.206033 -0.419619 0.146949 -0.065960 -0.610333 -0.021965 0.664577 0.264122 0.675478 -0.607417 0.344378 -0.092994 -0.408837 0.508488 0.583712 -0.262473 0.225329 -0.971827 0.218232 0.034752 -0.196722 0.477545 0.240680 0.304202 0.185203 0.149460 -0.612543 -0.576941 -0.046990 -0.118420 1.091074 0.273120 -0.213502 0.301749 -0.559626 0.560608 0.741141 0.117703 0.050577 -0.196225 0.010970 0.540704 -0.665140 0.242843 0.341095 0.380293 -0.203581 0.372891 0.881987 -0.297029 -0.609354 0.073630 -0.253565 0.479464 0.873100 0.081741 0.237210 0.476335 -0.239312 0.576032 -0.219798 -0.029690 -0.580614 0.110291
在/p 0.871063 -0.174313 -0.602749 -0.331167 -0.641872 0.789590 0.294830 -0.100746 0.169418 -0.040944 0.021171 0.461756 0.031106 -0.312547 -0.530142 0.077604 -0.099577 -0.305258 0.667564 -0.232398 -0.783827 -0.140684 -0.333475 0.632981 0.412949 -0.175769 0.397268 0.454825 0.471316 0.081037 -0.122018 -0.516408 -0.039513 0.070085 0.149354 0.071333 -0.206833 -0.414406 0.141819 -0.074628 -0.602027 -0.016341 0.648691 0.259120 0.675387 -0.596610 0.344186 -0.089949 -0.395052 0.507503 0.578135 -0.260945 0.223148 -0.965850 0.212662 0.021898 -0.191689 0.468809 0.234817 0.300797 0.174771 0.159253 -0.611091 -0.575240 -0.033162 -0.122498 1.080629 0.258982 -0.211027 0.302710 -0.558407 0.557095 0.731792 0.117639 0.048367 -0.200560 0.014840 0.537279 -0.666266 0.245535 0.333836 0.373033 -0.195823 0.372585 0.868413 -0.304603 -0.604957 0.067012 -0.237255 0.472135 0.857363 0.080196 0.240184 0.477791 -0.240251 0.573553 -0.215079 -0.029478 -0.576779 0.099213
是/v 0.811948 -0.185489 -0.551627 -0.306715 -0.649416 0.783338 0.311830 -0.117151 0.174163 -0.051506 0.047124 0.437423 0.024720 -0.305766 -0.507009 0.065109 -0.085664 -0.291166 0.614720 -0.221078 -0.758503 -0.155001 -0.340692 0.634314 0.399098 -0.181015 0.391407 0.438758 0.453620 0.112641 -0.110255 -0.461606 -0.036054 0.038360 0.131771 0.079988 -0.193259 -0.411354 0.146321 -0.065648 -0.564089 -0.001048 0.640631 0.254451 0.650779 -0.541085 0.335229 -0.050212 -0.374511 0.487977 0.553470 -0.262980 0.220991 -0.924536 0.202707 0.000225 -0.207219 0.426201 0.233350 0.303778 0.179876 0.155646 -0.562063 -0.560254 -0.039563 -0.097167 1.034137 0.218530 -0.202410 0.266871 -0.537757 0.542959 0.723611 0.091627 0.049776 -0.198099 0.030460 0.499301 -0.638060 0.266939 0.302768 0.354486 -0.180738 0.359517 0.842494 -0.276308 -0.588204 0.083510 -0.220716 0.478476 0.819235 0.091947 0.234286 0.463435 -0.210353 0.553660 -0.197283 -0.014251 -0.510605 0.076293
和/cC 0.929236 -0.148470 -0.644416 -0.330151 -0.619833 0.794267 0.306526 -0.084467 0.179319 -0.057842 -0.011707 0.499329 0.053297 -0.315953 -0.563662 0.096769 -0.135448 -0.294013 0.684501 -0.268976 -0.812093 -0.147333 -0.366651 0.637885 0.450553 -0.163261 0.405567 0.520446 0.481833 0.061768 -0.125890 -0.560458 -0.050775 0.087863 0.121054 0.085312 -0.197957 -0.442622 0.154310 -0.071584 -0.630632 -0.026314 0.646771 0.258928 0.678618 -0.657591 0.317822 -0.114192 -0.413526 0.509169 0.611690 -0.254093 0.202165 -1.026012 0.214143 0.068633 -0.190562 0.502901 0.236310 0.273392 0.180268 0.126132 -0.670430 -0.591361 -0.068520 -0.156680 1.102515 0.326199 -0.214093 0.305014 -0.598242 0.557322 0.756516 0.136425 0.037895 -0.196399 0.036159 0.579428 -0.661464 0.227966 0.372421 0.365870 -0.245034 0.366835 0.888106 -0.321906 -0.611193 0.047896 -0.285406 0.478695 0.898441 0.099343 0.246861 0.467227 -0.240045 0.544866 -0.223156 -0.057112 -0.613144 0.160394
“/wLB 0.796778 -0.154530 -0.558905 -0.307253 -0.650193 0.750082 0.319640 -0.136550 0.205562 -0.076069 0.035608 0.416719 -0.010433 -0.342570 -0.543246 0.045804 -0.096101 -0.248447 0.604083 -0.246151 -0.743598 -0.169986 -0.270961 0.615413 0.396637 -0.125370 0.343866 0.401645 0.441772 0.135967 -0.137501 -0.437734 0.004449 0.109957 0.056540 0.130773 -0.161586 -0.424154 0.128800 -0.059602 -0.521457 -0.082209 0.642832 0.250834 0.612467 -0.505735 0.297221 -0.034711 -0.328955 0.425723 0.472514 -0.245785 0.191175 -0.852735 0.219804 0.034480 -0.234838 0.398382 0.200153 0.259117 0.219160 0.178394 -0.550387 -0.578087 -0.042141 -0.126745 0.993111 0.210403 -0.218805 0.264650 -0.534741 0.510573 0.697314 0.111097 0.068459 -0.191018 0.045396 0.428752 -0.633966 0.247257 0.309846 0.304480 -0.181837 0.333796 0.785727 -0.200954 -0.534888 0.037353 -0.181466 0.528074 0.770801 0.114921 0.240746 0.367244 -0.181665 0.503643 -0.206562 -0.025724 -0.468578 0.087350
”/wRB 0.771800 -0.122871 -0.509922 -0.271460 -0.582192 0.722581 0.293108 -0.146122 0.210178 -0.072764 0.068092 0.419850 -0.038320 -0.276181 -0.523081 0.078901 -0.100533 -0.248399 0.554740 -0.236499 -0.756471 -0.188810 -0.260445 0.580077 0.409123 -0.145993 0.367743 0.425526 0.456837 0.080421 -0.102303 -0.455738 0.000681 0.093468 0.067464 0.136142 -0.170261 -0.392855 0.087218 -0.073753 -0.484903 -0.031335 0.610850 0.227086 0.619324 -0.502307 0.277521 -0.064561 -0.330216 0.416259 0.479742 -0.264642 0.186647 -0.885648 0.218709 0.017309 -0.200698 0.397832 0.173539 0.235405 0.217015 0.143943 -0.530806 -0.525328 -0.067253 -0.119943 1.006744 0.179915 -0.238984 0.279997 -0.525192 0.501053 0.692415 0.103954 0.068182 -0.194975 0.051723 0.466152 -0.595159 0.233879 0.274101 0.326759 -0.139607 0.320701 0.795877 -0.214163 -0.516618 0.066359 -0.199674 0.477517 0.754197 0.096275 0.255285 0.361498 -0.175027 0.503379 -0.226466 -0.001633 -0.485935 0.055772
一/m 0.860466 -0.203861 -0.600598 -0.335876 -0.684279 0.808753 0.303114 -0.116953 0.185100 -0.040401 0.034826 0.461153 0.019753 -0.325268 -0.532329 0.067338 -0.087099 -0.335043 0.680429 -0.224450 -0.780303 -0.160326 -0.350662 0.648769 0.403960 -0.202537 0.398795 0.447151 0.505252 0.099256 -0.101103 -0.513182 -0.037324 0.041888 0.147480 0.075269 -0.200925 -0.436469 0.143127 -0.074072 -0.603426 -0.022508 0.686021 0.283397 0.682569 -0.584109 0.369248 -0.088434 -0.411497 0.528595 0.593981 -0.270109 0.222992 -0.954103 0.218277 0.015918 -0.216170 0.477010 0.250470 0.338952 0.174482 0.172516 -0.588701 -0.587234 -0.026356 -0.099281 1.112033 0.255291 -0.214387 0.292498 -0.567717 0.577183 0.771760 0.127309 0.051380 -0.192772 0.006386 0.542728 -0.692421 0.272264 0.336461 0.385914 -0.200258 0.389770 0.905687 -0.308532 -0.615756 0.078725 -0.235823 0.486241 0.874755 0.070472 0.237458 0.496521 -0.234731 0.586134 -0.218125 -0.017910 -0.572292 0.067974
不/dN 0.826456 -0.197510 -0.572649 -0.327523 -0.664433 0.789564 0.317989 -0.114926 0.193392 -0.051291 0.034188 0.442457 0.028484 -0.317231 -0.529145 0.064688 -0.104289 -0.289848 0.644329 -0.224286 -0.771271 -0.154409 -0.351383 0.640509 0.419372 -0.184654 0.391303 0.443378 0.479984 0.105519 -0.116124 -0.474884 -0.029607 0.037548 0.143365 0.092918 -0.184119 -0.413341 0.149906 -0.063447 -0.568948 -0.022198 0.658658 0.261062 0.654418 -0.543083 0.327744 -0.043450 -0.392626 0.488653 0.560334 -0.265995 0.221159 -0.935149 0.211809 -0.004078 -0.197519 0.448801 0.245278 0.320880 0.177572 0.158220 -0.567614 -0.578012 -0.048005 -0.113924 1.056102 0.235273 -0.198812 0.265805 -0.541841 0.552584 0.721351 0.104034 0.061994 -0.194167 0.018720 0.501734 -0.654068 0.268995 0.321329 0.369268 -0.186864 0.353921 0.836111 -0.271575 -0.591432 0.078182 -0.208431 0.480892 0.818879 0.093781 0.240434 0.469819 -0.213846 0.554146 -0.186508 -0.020283 -0.532211 0.070379
有/v 0.842021 -0.181820 -0.577955 -0.316768 -0.633864 0.768043 0.297551 -0.114166 0.164863 -0.056718 0.017395 0.448925 0.044233 -0.305879 -0.517790 0.079768 -0.101644 -0.280593 0.639214 -0.238407 -0.755659 -0.144272 -0.329569 0.613118 0.405265 -0.172633 0.382108 0.459593 0.463948 0.096328 -0.118886 -0.493317 -0.034647 0.052388 0.119504 0.080881 -0.180557 -0.419912 0.142838 -0.062114 -0.574549 -0.020359 0.638164 0.251305 0.646356 -0.566912 0.317537 -0.078009 -0.392072 0.481662 0.555815 -0.253909 0.213919 -0.931866 0.196555 0.022170 -0.185393 0.453364 0.233568 0.292947 0.172667 0.147536 -0.583583 -0.566076 -0.044433 -0.119332 1.031623 0.254331 -0.202416 0.278300 -0.543754 0.537126 0.715589 0.118392 0.047318 -0.177826 0.016443 0.506126 -0.646415 0.248608 0.322935 0.355429 -0.205369 0.353945 0.835597 -0.275295 -0.578622 0.060985 -0.234403 0.469107 0.819659 0.089066 0.235795 0.449596 -0.217760 0.538911 -0.200278 -0.035651 -0.539175 0.098045
中国/nS 0.841583 -0.151832 -0.596291 -0.306650 -0.605765 0.741426 0.287345 -0.092126 0.173735 -0.054182 0.008965 0.443444 0.029148 -0.299351 -0.516027 0.080734 -0.116315 -0.292076 0.636424 -0.237532 -0.750467 -0.134231 -0.322012 0.610740 0.415756 -0.167149 0.371516 0.463220 0.455023 0.061917 -0.113631 -0.512005 -0.035217 0.080478 0.120635 0.076427 -0.194866 -0.403709 0.145065 -0.057812 -0.588776 -0.024498 0.606657 0.255646 0.633242 -0.605215 0.316497 -0.089671 -0.369908 0.463757 0.557121 -0.239939 0.199445 -0.927649 0.212876 0.037890 -0.169809 0.466592 0.229322 0.274411 0.165274 0.144161 -0.603636 -0.546176 -0.043275 -0.126207 1.034251 0.285341 -0.206114 0.291753 -0.556517 0.517349 0.705659 0.116745 0.044156 -0.187123 0.016105 0.539456 -0.621844 0.225636 0.336743 0.343602 -0.200128 0.352333 0.819623 -0.303618 -0.570236 0.044256 -0.244036 0.462627 0.834529 0.097735 0.224694 0.442805 -0.212427 0.530496 -0.205857 -0.048903 -0.557354 0.139686
对/p 0.876337 -0.171933 -0.606460 -0.324034 -0.632078 0.785840 0.303880 -0.102895 0.174352 -0.049718 0.007000 0.467285 0.038596 -0.316665 -0.527487 0.083217 -0.107829 -0.301104 0.662906 -0.251688 -0.780039 -0.143557 -0.338591 0.624384 0.422769 -0.176458 0.394448 0.473091 0.464319 0.083615 -0.123492 -0.522941 -0.042394 0.073168 0.141879 0.082018 -0.191463 -0.420248 0.150684 -0.066441 -0.598187 -0.017167 0.642771 0.254313 0.662123 -0.606936 0.330581 -0.080652 -0.387138 0.486604 0.584101 -0.257571 0.209806 -0.953894 0.210657 0.043525 -0.195421 0.465584 0.233895 0.286328 0.183605 0.146975 -0.619431 -0.572392 -0.051982 -0.122360 1.069061 0.271861 -0.212043 0.298083 -0.570687 0.545169 0.733909 0.126225 0.046295 -0.189447 0.016692 0.538195 -0.652343 0.241316 0.336614 0.371738 -0.202719 0.364004 0.854141 -0.306172 -0.589627 0.056519 -0.256157 0.476548 0.846688 0.085529 0.227713 0.457685 -0.229393 0.561877 -0.212220 -0.033541 -0.575804 0.126854
也/d 0.911982 -0.191624 -0.623277 -0.339481 -0.698458 0.839912 0.331805 -0.109250 0.191770 -0.056097 0.028910 0.474440 0.027944 -0.338448 -0.563570 0.080880 -0.115589 -0.323775 0.690168 -0.250829 -0.817876 -0.162842 -0.371759 0.687339 0.441065 -0.191644 0.413424 0.480541 0.511082 0.098778 -0.123436 -0.523419 -0.046281 0.053185 0.143873 0.091162 -0.210728 -0.447150 0.165470 -0.073507 -0.630583 -0.015718 0.698454 0.281711 0.702694 -0.616664 0.360649 -0.076550 -0.413303 0.527348 0.606806 -0.275967 0.235411 -1.005089 0.223638 0.022694 -0.213507 0.487754 0.244713 0.324973 0.188147 0.168221 -0.626749 -0.611743 -0.051352 -0.121388 1.131060 0.269880 -0.211839 0.304687 -0.598155 0.592655 0.786333 0.110277 0.053659 -0.210834 0.024123 0.554332 -0.703492 0.277317 0.357671 0.395241 -0.217637 0.385420 0.903852 -0.302161 -0.629364 0.081126 -0.244456 0.514227 0.904135 0.088739 0.256955 0.499166 -0.233971 0.592053 -0.213405 -0.032236 -0.583170 0.102120
这/rN 0.821979 -0.185760 -0.562451 -0.311872 -0.642482 0.767616 0.304821 -0.116608 0.169777 -0.041230 0.034341 0.435428 0.025209 -0.308395 -0.502149 0.068851 -0.085183 -0.303168 0.629873 -0.218311 -0.749639 -0.143865 -0.321249 0.634562 0.399136 -0.181305 0.379082 0.433023 0.463167 0.107215 -0.107164 -0.472257 -0.027576 0.040217 0.133302 0.077493 -0.187085 -0.403487 0.135746 -0.060532 -0.571585 -0.012728 0.645285 0.257915 0.644135 -0.540642 0.329857 -0.072264 -0.383894 0.476216 0.553882 -0.256223 0.212797 -0.903480 0.205801 0.012893 -0.203146 0.437266 0.226058 0.306581 0.170291 0.159144 -0.564421 -0.559897 -0.038558 -0.095590 1.041743 0.227724 -0.198875 0.279193 -0.539167 0.536701 0.720424 0.099266 0.056630 -0.188849 0.010006 0.503135 -0.651618 0.258527 0.318901 0.360693 -0.193094 0.348264 0.836412 -0.275875 -0.586579 0.075147 -0.208606 0.475995 0.819496 0.083645 0.235190 0.460846 -0.216741 0.562668 -0.200850 -0.022025 -0.517780 0.066450
个/qN 0.926398 -0.200688 -0.663568 -0.339839 -0.684887 0.854447 0.332022 -0.111570 0.180506 -0.045355 0.011546 0.496131 0.050534 -0.335502 -0.567885 0.079693 -0.108467 -0.331650 0.729428 -0.258325 -0.849322 -0.146461 -0.354907 0.679840 0.443511 -0.190365 0.420951 0.499187 0.531730 0.099538 -0.113115 -0.561006 -0.035579 0.066677 0.165070 0.063887 -0.212415 -0.449669 0.159775 -0.076680 -0.653301 -0.017421 0.721976 0.294710 0.713903 -0.637807 0.365974 -0.109326 -0.439292 0.555410 0.632962 -0.290493 0.239281 -1.026312 0.228796 0.044931 -0.208185 0.506210 0.254674 0.332004 0.185201 0.160852 -0.640638 -0.623950 -0.050741 -0.133328 1.168964 0.279089 -0.224061 0.318744 -0.608425 0.599945 0.791212 0.134596 0.040922 -0.214086 0.005818 0.577059 -0.718401 0.255837 0.376188 0.414719 -0.230086 0.409979 0.945577 -0.328930 -0.635318 0.077511 -0.253932 0.509672 0.936118 0.077654 0.265295 0.526114 -0.260410 0.610784 -0.234148 -0.026248 -0.612888 0.105460
上/f 0.825445 -0.157468 -0.557976 -0.296536 -0.602366 0.750637 0.285699 -0.089789 0.172813 -0.045551 0.017514 0.443509 0.029419 -0.299627 -0.507394 0.085914 -0.100154 -0.284340 0.622322 -0.222594 -0.745441 -0.142943 -0.328739 0.603428 0.398625 -0.175963 0.372935 0.435046 0.458094 0.088005 -0.110652 -0.486796 -0.042882 0.070921 0.136247 0.087414 -0.193205 -0.403154 0.145414 -0.059543 -0.573280 -0.023615 0.610785 0.247784 0.624992 -0.569320 0.304632 -0.081203 -0.378599 0.478106 0.554527 -0.249673 0.209887 -0.908064 0.205355 0.039372 -0.182442 0.444934 0.227904 0.283188 0.170381 0.128340 -0.579709 -0.537036 -0.042361 -0.123609 1.001392 0.259368 -0.193772 0.270296 -0.533187 0.525818 0.696528 0.118771 0.053438 -0.180865 0.017784 0.502083 -0.629104 0.231249 0.317641 0.358355 -0.203936 0.339338 0.804782 -0.280859 -0.564374 0.055490 -0.233019 0.452733 0.811912 0.088803 0.225077 0.441583 -0.220716 0.529745 -0.196299 -0.041787 -0.537596 0.099346
他/rNP 0.781585 -0.172885 -0.536997 -0.302965 -0.623737 0.731264 0.290199 -0.109644 0.178632 -0.032606 0.050542 0.401235 0.015634 -0.292970 -0.497909 0.056803 -0.086290 -0.287677 0.602704 -0.208460 -0.716171 -0.137595 -0.303955 0.587314 0.380029 -0.169200 0.354859 0.398629 0.446379 0.104608 -0.111801 -0.442600 -0.029486 0.057849 0.137804 0.088527 -0.182321 -0.403339 0.137554 -0.048966 -0.549236 -0.016231 0.613603 0.245723 0.614307 -0.523718 0.319729 -0.051028 -0.358044 0.457077 0.517953 -0.255619 0.206376 -0.869744 0.209251 0.013460 -0.183563 0.416579 0.222583 0.300220 0.169241 0.158909 -0.536904 -0.539799 -0.032889 -0.094425 0.999038 0.204981 -0.204785 0.266066 -0.502502 0.518922 0.690882 0.091113 0.064789 -0.175701 0.011576 0.470121 -0.614725 0.255197 0.298343 0.350194 -0.164367 0.334757 0.796632 -0.271159 -0.547671 0.066417 -0.210845 0.462550 0.766334 0.084985 0.217172 0.417424 -0.200816 0.534564 -0.185093 -0.012340 -0.499474 0.073355
：/wM 0.886973 -0.181828 -0.599557 -0.322148 -0.687252 0.826231 0.315328 -0.132043 0.203465 -0.038192 0.069728 0.453791 -0.012710 -0.335285 -0.577705 0.063669 -0.116142 -0.329370 0.669434 -0.245557 -0.833888 -0.170411 -0.318304 0.665225 0.431549 -0.182477 0.397830 0.450375 0.510848 0.095665 -0.123867 -0.517070 -0.035893 0.091794 0.125733 0.110751 -0.206840 -0.443963 0.135177 -0.059935 -0.606694 -0.024693 0.688691 0.278901 0.679458 -0.584996 0.362400 -0.070161 -0.402789 0.484835 0.582335 -0.280491 0.218938 -0.967695 0.246598 0.008035 -0.204836 0.476405 0.238084 0.320904 0.210841 0.181605 -0.603710 -0.589670 -0.058933 -0.116651 1.129824 0.223562 -0.242576 0.312082 -0.591305 0.582894 0.780008 0.103410 0.073990 -0.209191 0.023143 0.545276 -0.683896 0.279796 0.327204 0.392403 -0.173897 0.369821 0.900478 -0.297301 -0.622833 0.078166 -0.234640 0.526546 0.863532 0.097730 0.273947 0.462091 -0.219124 0.606929 -0.225851 -0.011459 -0.570470 0.074600
中/f 0.859444 -0.168123 -0.587815 -0.306262 -0.633631 0.766351 0.292225 -0.098873 0.176540 -0.042716 0.010835 0.449011 0.027125 -0.311493 -0.529106 0.083854 -0.105408 -0.293703 0.644219 -0.232770 -0.766311 -0.139651 -0.327764 0.620353 0.413411 -0.168113 0.379464 0.457020 0.472788 0.083727 -0.122572 -0.502454 -0.039682 0.068207 0.136953 0.082404 -0.199227 -0.415418 0.148473 -0.074430 -0.592626 -0.025290 0.634221 0.259000 0.649221 -0.593054 0.324880 -0.089697 -0.386359 0.485411 0.568244 -0.254808 0.215301 -0.947755 0.209900 0.030522 -0.191123 0.452984 0.226300 0.291921 0.178833 0.144408 -0.595061 -0.555826 -0.041266 -0.121911 1.051128 0.265362 -0.204025 0.282576 -0.553417 0.549542 0.729595 0.114215 0.052210 -0.184535 0.016770 0.523596 -0.640719 0.236978 0.328480 0.358175 -0.210300 0.348191 0.839292 -0.286249 -0.579347 0.057081 -0.246920 0.474381 0.850215 0.090214 0.244170 0.459933 -0.232356 0.543321 -0.199011 -0.042371 -0.557521 0.108773
人/n 0.840701 -0.179737 -0.590176 -0.321073 -0.658605 0.788923 0.310469 -0.117582 0.179767 -0.055699 0.039937 0.441587 0.033366 -0.319506 -0.529165 0.072902 -0.099138 -0.290265 0.643519 -0.232511 -0.768317 -0.143757 -0.336170 0.632652 0.409792 -0.181147 0.387507 0.448293 0.484133 0.098287 -0.117711 -0.493345 -0.040045 0.054506 0.141396 0.084930 -0.197436 -0.420062 0.146945 -0.067777 -0.583833 -0.025561 0.654996 0.257337 0.657384 -0.568415 0.327565 -0.061803 -0.385298 0.489616 0.568551 -0.263655 0.220006 -0.941662 0.209438 0.015572 -0.204279 0.455668 0.240867 0.314005 0.174587 0.154522 -0.586054 -0.575811 -0.035523 -0.117414 1.055543 0.243995 -0.214063 0.282173 -0.557604 0.552255 0.720286 0.113058 0.052149 -0.198251 0.015144 0.510713 -0.659735 0.256554 0.327744 0.361327 -0.199571 0.356902 0.855912 -0.278557 -0.593082 0.076174 -0.233772 0.480469 0.833977 0.083168 0.243020 0.467584 -0.217637 0.560266 -0.202954 -0.023761 -0.546714 0.080902
说/v 0.816494 -0.182118 -0.559410 -0.302261 -0.654521 0.778502 0.301444 -0.131847 0.187910 -0.044971 0.061668 0.417310 0.003307 -0.306288 -0.520792 0.050164 -0.085030 -0.291445 0.628417 -0.222830 -0.749914 -0.160852 -0.295937 0.632017 0.387340 -0.169964 0.379287 0.417171 0.468626 0.097678 -0.123888 -0.463752 -0.016423 0.076693 0.144642 0.089615 -0.189502 -0.411840 0.135158 -0.061351 -0.549069 -0.033173 0.630292 0.258612 0.649338 -0.533771 0.329155 -0.041856 -0.361610 0.466966 0.524945 -0.268586 0.223425 -0.891568 0.230511 0.012884 -0.201989 0.419993 0.234813 0.302989 0.198337 0.170774 -0.545617 -0.565245 -0.036613 -0.094846 1.043928 0.197592 -0.200369 0.272767 -0.546199 0.535863 0.707105 0.101549 0.073570 -0.189082 0.025278 0.481846 -0.634090 0.258040 0.305492 0.354724 -0.172468 0.332295 0.818966 -0.254550 -0.574397 0.055252 -0.206638 0.496006 0.782724 0.091105 0.235678 0.422854 -0.204400 0.555148 -0.193025 -0.018134 -0.517858 0.058306
就/d 0.839252 -0.190608 -0.571397 -0.311907 -0.650786 0.784756 0.306416 -0.108230 0.189350 -0.054057 0.031843 0.442117 0.030471 -0.321971 -0.531783 0.075219 -0.096513 -0.303201 0.643565 -0.229513 -0.771396 -0.143944 -0.345771 0.646928 0.421209 -0.176460 0.386853 0.436444 0.486019 0.096893 -0.112293 -0.491701 -0.036998 0.043706 0.140084 0.086570 -0.189232 -0.421888 0.147736 -0.068578 -0.573517 -0.016257 0.648329 0.263911 0.646596 -0.561061 0.329010 -0.058374 -0.393345 0.480661 0.565453 -0.256676 0.209515 -0.934877 0.204461 0.011094 -0.194593 0.448924 0.241268 0.317644 0.180396 0.152957 -0.579003 -0.570257 -0.038714 -0.116954 1.066124 0.245620 -0.195859 0.283117 -0.554954 0.547368 0.728497 0.103374 0.060885 -0.194889 0.017442 0.503523 -0.655506 0.261297 0.326387 0.367052 -0.194382 0.350089 0.847372 -0.273296 -0.595663 0.070992 -0.214756 0.477654 0.839054 0.084122 0.240102 0.460720 -0.215941 0.562742 -0.190296 -0.030221 -0.540451 0.081185
经济/n 0.872828 -0.152639 -0.605982 -0.310603 -0.603307 0.764272 0.294741 -0.081414 0.174558 -0.046109 -0.007434 0.470097 0.041358 -0.305241 -0.526839 0.083122 -0.116870 -0.291309 0.649578 -0.260422 -0.760860 -0.122949 -0.335767 0.623121 0.426927 -0.158922 0.379447 0.505599 0.455715 0.060251 -0.117247 -0.528262 -0.045582 0.070004 0.119299 0.088731 -0.196634 -0.408605 0.161167 -0.076121 -0.612877 -0.019690 0.623840 0.258938 0.652458 -0.630661 0.298869 -0.120586 -0.406553 0.479892 0.589274 -0.251930 0.197118 -0.982409 0.193699 0.054139 -0.171946 0.487862 0.210090 0.258105 0.183882 0.139401 -0.635063 -0.550239 -0.057020 -0.143572 1.051355 0.316646 -0.197991 0.307626 -0.560448 0.541838 0.729334 0.117292 0.030804 -0.193891 0.031222 0.557936 -0.635235 0.224336 0.337369 0.354211 -0.216434 0.340515 0.839501 -0.316530 -0.588197 0.062450 -0.265576 0.462336 0.862854 0.104771 0.245955 0.466280 -0.226204 0.525572 -0.209799 -0.051633 -0.582218 0.148995
等/uO 0.954910 -0.110028 -0.652177 -0.337479 -0.545908 0.734136 0.307337 -0.090133 0.172612 -0.101444 -0.088992 0.519916 0.093949 -0.304547 -0.582440 0.117162 -0.153933 -0.224977 0.685162 -0.340803 -0.802965 -0.146085 -0.348539 0.572819 0.480869 -0.113767 0.361554 0.561604 0.431591 0.033978 -0.144113 -0.580425 -0.046827 0.136222 0.017161 0.123236 -0.157319 -0.449568 0.141677 -0.059338 -0.598337 -0.072465 0.585656 0.233842 0.659951 -0.687113 0.255228 -0.124749 -0.377321 0.440924 0.576479 -0.231295 0.154327 -1.029657 0.187459 0.119390 -0.153352 0.514298 0.217090 0.228634 0.181572 0.083125 -0.676741 -0.584892 -0.109680 -0.206300 1.060390 0.367774 -0.244642 0.289431 -0.592944 0.500789 0.752176 0.147665 0.024113 -0.164719 0.073177 0.584386 -0.609368 0.191877 0.371866 0.300883 -0.269407 0.319737 0.827446 -0.285815 -0.559390 -0.002061 -0.303736 0.457870 0.852465 0.144168 0.248551 0.410407 -0.218000 0.459253 -0.242152 -0.106184 -0.613096 0.230007
我/rNP 0.758722 -0.177134 -0.524183 -0.296839 -0.602301 0.722455 0.286112 -0.120681 0.164198 -0.050872 0.046139 0.391691 0.005431 -0.290505 -0.480159 0.064493 -0.086385 -0.280134 0.583295 -0.208942 -0.703047 -0.148902 -0.307525 0.590402 0.368415 -0.157915 0.352920 0.390013 0.431390 0.103042 -0.111657 -0.429068 -0.030902 0.044467 0.120473 0.088205 -0.172559 -0.389387 0.127255 -0.056141 -0.517275 -0.022191 0.599403 0.231048 0.600955 -0.492681 0.314251 -0.040423 -0.345092 0.448056 0.497953 -0.242107 0.207944 -0.854224 0.207365 0.003474 -0.190064 0.407862 0.220532 0.292716 0.161862 0.156196 -0.506606 -0.525333 -0.035121 -0.085171 0.973198 0.200438 -0.193964 0.259433 -0.506226 0.498732 0.672582 0.087284 0.057256 -0.182398 0.016008 0.450338 -0.594960 0.244364 0.287850 0.336502 -0.164648 0.326610 0.779848 -0.254320 -0.542602 0.056851 -0.197171 0.453067 0.753362 0.087754 0.226901 0.421620 -0.196806 0.524985 -0.182134 -0.018679 -0.483688 0.060822
为/p 0.950096 -0.176692 -0.664396 -0.346995 -0.698651 0.853657 0.336224 -0.105304 0.191825 -0.045207 0.023308 0.495936 0.036602 -0.351053 -0.588875 0.083507 -0.117357 -0.320209 0.727032 -0.260864 -0.848385 -0.155948 -0.362946 0.689645 0.455717 -0.188251 0.430699 0.503268 0.521749 0.086578 -0.126076 -0.559967 -0.046635 0.070801 0.151180 0.082542 -0.213725 -0.465981 0.170419 -0.066091 -0.657740 -0.029229 0.702879 0.288340 0.723391 -0.649520 0.360995 -0.102196 -0.439363 0.541941 0.640428 -0.285765 0.233199 -1.052269 0.227385 0.045259 -0.215243 0.502114 0.260075 0.315272 0.195430 0.163669 -0.667091 -0.626201 -0.051036 -0.132548 1.178195 0.300779 -0.233728 0.331697 -0.610903 0.598250 0.807743 0.125098 0.053001 -0.217198 0.017664 0.589598 -0.713961 0.258191 0.367519 0.403441 -0.221323 0.397111 0.944040 -0.325546 -0.648322 0.081055 -0.271913 0.528263 0.941356 0.103281 0.265045 0.505798 -0.250336 0.610163 -0.227108 -0.040546 -0.621812 0.135775
到/v 0.977290 -0.202836 -0.674222 -0.368404 -0.728601 0.891623 0.335286 -0.113961 0.208173 -0.049223 0.021322 0.511743 0.044211 -0.355706 -0.607291 0.078103 -0.127078 -0.334042 0.743101 -0.269770 -0.883792 -0.163193 -0.391991 0.716211 0.469285 -0.211599 0.449822 0.511766 0.547670 0.094406 -0.132601 -0.575870 -0.048515 0.070456 0.151599 0.092924 -0.218275 -0.474957 0.175751 -0.076302 -0.667537 -0.025232 0.741599 0.296466 0.742733 -0.649900 0.378390 -0.090911 -0.452323 0.565460 0.652412 -0.297266 0.249791 -1.078025 0.234794 0.028045 -0.218621 0.518064 0.270774 0.340359 0.199087 0.175923 -0.683512 -0.650775 -0.044821 -0.139983 1.210438 0.287001 -0.246831 0.324162 -0.634737 0.628091 0.825777 0.129723 0.054067 -0.217939 0.015494 0.600088 -0.750253 0.284125 0.379675 0.413678 -0.232856 0.403311 0.970669 -0.333210 -0.675353 0.084492 -0.262349 0.541499 0.956177 0.102029 0.270609 0.527297 -0.266371 0.632217 -0.232887 -0.028284 -0.635959 0.115631
大/a 0.828632 -0.179467 -0.586829 -0.317346 -0.634351 0.775747 0.289730 -0.104665 0.168121 -0.046590 0.016445 0.451677 0.033307 -0.308080 -0.520148 0.074363 -0.103209 -0.301688 0.652763 -0.231103 -0.766693 -0.150514 -0.331181 0.633332 0.409339 -0.175439 0.392705 0.452580 0.465456 0.080457 -0.111095 -0.501721 -0.039380 0.058582 0.134033 0.087040 -0.199946 -0.403261 0.147852 -0.067958 -0.576130 -0.026060 0.647510 0.255811 0.658354 -0.581256 0.337969 -0.074883 -0.399087 0.499117 0.569040 -0.261712 0.218785 -0.942016 0.214619 0.015412 -0.185106 0.459712 0.224748 0.302074 0.176892 0.140393 -0.594687 -0.561748 -0.042702 -0.114814 1.058553 0.252097 -0.197867 0.288368 -0.545767 0.552639 0.726329 0.120424 0.038347 -0.199917 0.026554 0.518509 -0.653441 0.241333 0.322031 0.369721 -0.198561 0.364410 0.855187 -0.292756 -0.589456 0.071954 -0.234702 0.464501 0.842178 0.086373 0.240081 0.464457 -0.233585 0.545292 -0.206243 -0.034757 -0.550688 0.095010
两/m 0.811653 -0.186687 -0.587990 -0.308196 -0.622457 0.756428 0.308320 -0.084968 0.127507 -0.005074 -0.019393 0.427350 0.008796 -0.275226 -0.496948 0.089801 -0.076319 -0.317699 0.618809 -0.225868 -0.752851 -0.133421 -0.294234 0.636140 0.357079 -0.177120 0.369214 0.439283 0.426752 0.058326 -0.137325 -0.475310 -0.027922 0.033404 0.133704 0.021631 -0.211724 -0.367842 0.136730 -0.088435 -0.570675 0.007566 0.650132 0.240985 0.655720 -0.581944 0.361450 -0.121881 -0.375603 0.499063 0.554597 -0.258201 0.217693 -0.911200 0.197426 0.021436 -0.204296 0.460778 0.207858 0.293039 0.145750 0.137478 -0.556178 -0.568738 -0.025134 -0.090681 1.017067 0.271895 -0.175526 0.306702 -0.543672 0.556847 0.732968 0.115406 0.037683 -0.183738 -0.013584 0.520836 -0.608802 0.207967 0.351435 0.356946 -0.228139 0.339887 0.845908 -0.322933 -0.562598 0.086602 -0.220073 0.432827 0.856788 0.094809 0.231169 0.479668 -0.243193 0.533533 -0.202752 -0.047093 -0.554366 0.117786
年/qT 0.842425 -0.198106 -0.615640 -0.307880 -0.652958 0.797013 0.315745 -0.094700 0.155382 -0.042644 0.033112 0.441971 0.059648 -0.313218 -0.526478 0.074202 -0.082867 -0.296757 0.679778 -0.239417 -0.779005 -0.146908 -0.333965 0.631737 0.413395 -0.198454 0.397664 0.462061 0.504255 0.098016 -0.108702 -0.508140 -0.042170 0.054322 0.161966 0.058177 -0.203971 -0.420032 0.141617 -0.075249 -0.599484 -0.015857 0.680916 0.264714 0.670379 -0.595891 0.346446 -0.106021 -0.424246 0.516123 0.576476 -0.276851 0.235625 -0.955801 0.208082 0.043099 -0.190051 0.454636 0.230947 0.324759 0.169563 0.156943 -0.581159 -0.569867 -0.037839 -0.113318 1.081460 0.245196 -0.192327 0.306117 -0.545945 0.555753 0.725428 0.120312 0.051266 -0.185545 -0.010485 0.523743 -0.672262 0.247891 0.354274 0.387329 -0.202481 0.385285 0.885485 -0.300752 -0.590063 0.076821 -0.246838 0.466151 0.848989 0.077245 0.248983 0.501109 -0.244712 0.567318 -0.207070 -0.011331 -0.573447 0.085399
要/vM 0.952901 -0.199589 -0.655394 -0.349604 -0.706210 0.859954 0.335022 -0.120948 0.203688 -0.044006 0.034816 0.505327 0.036032 -0.355677 -0.599987 0.085620 -0.122580 -0.331482 0.727876 -0.258452 -0.863481 -0.152799 -0.384550 0.707798 0.456374 -0.194844 0.430968 0.502447 0.529570 0.100336 -0.128764 -0.555491 -0.047873 0.075152 0.150770 0.085318 -0.213597 -0.462789 0.170618 -0.079498 -0.664587 -0.023933 0.700928 0.295148 0.730187 -0.646256 0.363173 -0.093374 -0.437821 0.555510 0.645773 -0.281306 0.237719 -1.045643 0.226624 0.027061 -0.208427 0.509145 0.264023 0.329582 0.194929 0.159889 -0.666683 -0.623983 -0.059883 -0.131574 1.177877 0.294268 -0.225756 0.321801 -0.625662 0.605216 0.812922 0.123245 0.056555 -0.211104 0.021946 0.577826 -0.727142 0.278319 0.372201 0.401700 -0.234825 0.393398 0.953186 -0.328762 -0.666917 0.079719 -0.263636 0.532631 0.934205 0.103123 0.270937 0.514279 -0.254210 0.623853 -0.232627 -0.032171 -0.620573 0.116953
一个/m 0.771797 -0.164782 -0.545384 -0.291650 -0.606106 0.730547 0.283997 -0.106792 0.169500 -0.052074 0.023288 0.414750 0.018540 -0.288515 -0.491138 0.062319 -0.094655 -0.280297 0.602650 -0.214296 -0.718620 -0.136016 -0.312758 0.596259 0.386786 -0.161138 0.354245 0.407748 0.443830 0.084688 -0.101216 -0.451901 -0.025017 0.052548 0.130885 0.073619 -0.181197 -0.391341 0.135569 -0.056003 -0.538955 -0.014176 0.602846 0.242958 0.607865 -0.517678 0.310713 -0.057750 -0.357862 0.445473 0.513302 -0.238773 0.201410 -0.867632 0.198957 0.013290 -0.182228 0.418737 0.212149 0.280438 0.170702 0.143504 -0.541070 -0.522230 -0.035906 -0.104261 0.984878 0.216331 -0.189027 0.259945 -0.513712 0.505811 0.670804 0.101255 0.056670 -0.173530 0.014476 0.471293 -0.613077 0.244136 0.300423 0.331352 -0.178817 0.324324 0.787179 -0.258095 -0.550539 0.068317 -0.212480 0.448157 0.763528 0.087135 0.219465 0.428379 -0.195946 0.524561 -0.181664 -0.025829 -0.494377 0.079616
问题/n 0.827549 -0.159385 -0.569662 -0.303288 -0.596763 0.733751 0.280796 -0.100452 0.161879 -0.052045 0.000276 0.435413 0.036336 -0.299386 -0.502360 0.077270 -0.097431 -0.281225 0.620499 -0.232203 -0.736146 -0.138370 -0.316929 0.591874 0.401205 -0.164461 0.360680 0.449466 0.438643 0.073543 -0.117249 -0.482653 -0.034079 0.065698 0.123188 0.084803 -0.178628 -0.389656 0.135674 -0.059323 -0.571834 -0.015610 0.609124 0.233672 0.614521 -0.555343 0.305380 -0.077221 -0.366007 0.463810 0.537287 -0.245999 0.195062 -0.900695 0.202998 0.032128 -0.180700 0.442825 0.213244 0.271891 0.175740 0.124205 -0.574034 -0.540152 -0.040876 -0.117003 0.994895 0.254273 -0.202406 0.271987 -0.529305 0.508780 0.682488 0.119786 0.049415 -0.176789 0.028884 0.496548 -0.613208 0.233269 0.313765 0.335333 -0.200653 0.329885 0.812982 -0.272689 -0.558775 0.065419 -0.236059 0.452448 0.803801 0.080600 0.216372 0.433899 -0.222212 0.526887 -0.206833 -0.042318 -0.529492 0.117092
都/d 0.892411 -0.183161 -0.616013 -0.331109 -0.669503 0.808686 0.316958 -0.112982 0.185314 -0.051722 0.021673 0.469175 0.038654 -0.324529 -0.553210 0.075432 -0.114920 -0.301745 0.674191 -0.252414 -0.804991 -0.156163 -0.350850 0.655021 0.441361 -0.179012 0.405224 0.479676 0.493495 0.098557 -0.128738 -0.523284 -0.044943 0.057112 0.134918 0.084774 -0.192333 -0.433430 0.160346 -0.062776 -0.609546 -0.021026 0.670879 0.266438 0.673681 -0.601663 0.346634 -0.073579 -0.404448 0.511787 0.584759 -0.270805 0.221698 -0.989017 0.215235 0.034169 -0.195200 0.477015 0.241581 0.314748 0.181515 0.154544 -0.613242 -0.587574 -0.049235 -0.123872 1.107755 0.263488 -0.209425 0.295329 -0.579879 0.564468 0.756787 0.119782 0.047634 -0.191963 0.024549 0.543225 -0.667855 0.265902 0.343337 0.376733 -0.211799 0.360284 0.877136 -0.292423 -0.612337 0.070742 -0.247461 0.495388 0.873967 0.088712 0.252396 0.477730 -0.231255 0.577400 -0.203655 -0.042331 -0.578000 0.099979
工作/vN 0.915646 -0.157535 -0.639513 -0.332610 -0.654198 0.809387 0.307586 -0.107416 0.193597 -0.058364 0.014404 0.483613 0.043940 -0.335422 -0.558248 0.086394 -0.127207 -0.311727 0.694430 -0.269816 -0.824559 -0.142623 -0.363175 0.659985 0.443798 -0.178968 0.410780 0.484674 0.489980 0.081300 -0.114528 -0.545115 -0.043273 0.085396 0.137466 0.083304 -0.205526 -0.432330 0.161632 -0.075906 -0.630622 -0.029840 0.672543 0.278490 0.687653 -0.633957 0.327503 -0.097344 -0.403976 0.517329 0.602525 -0.269763 0.215012 -1.001732 0.220157 0.047971 -0.210291 0.496829 0.236999 0.295643 0.199409 0.154822 -0.652559 -0.593543 -0.063495 -0.147454 1.126606 0.296941 -0.228060 0.316136 -0.587099 0.568452 0.754544 0.131944 0.046341 -0.215354 0.036304 0.559182 -0.679015 0.257553 0.363829 0.379103 -0.209435 0.368092 0.887993 -0.312145 -0.610249 0.072729 -0.248162 0.492323 0.892759 0.094408 0.252086 0.480697 -0.238702 0.567943 -0.225031 -0.053905 -0.600623 0.121715
与/p 0.979257 -0.195342 -0.692802 -0.366826 -0.718534 0.887903 0.340717 -0.107153 0.203423 -0.042087 0.013853 0.516772 0.039477 -0.359752 -0.601343 0.087824 -0.123373 -0.343860 0.749050 -0.273659 -0.878567 -0.157552 -0.386580 0.717116 0.468971 -0.200962 0.453609 0.527393 0.540047 0.087767 -0.125997 -0.593018 -0.045548 0.074022 0.167636 0.088016 -0.224770 -0.477245 0.182084 -0.081692 -0.690423 -0.024711 0.729334 0.295122 0.756459 -0.681553 0.381663 -0.105128 -0.447325 0.567375 0.662779 -0.298947 0.246122 -1.093656 0.244533 0.041215 -0.224183 0.533818 0.262426 0.329716 0.201970 0.172199 -0.696239 -0.649735 -0.056269 -0.141854 1.220439 0.316780 -0.243779 0.337745 -0.637286 0.632283 0.834061 0.128846 0.058797 -0.220428 0.016246 0.613897 -0.746847 0.264760 0.390157 0.417457 -0.232698 0.413563 0.981291 -0.343381 -0.673497 0.077637 -0.280196 0.530077 0.983416 0.102607 0.265219 0.537703 -0.268234 0.638503 -0.239329 -0.046022 -0.660167 0.130099
能/vM 0.881517 -0.204305 -0.608028 -0.330100 -0.680793 0.809609 0.322928 -0.111873 0.180894 -0.047069 0.039755 0.453324 0.034267 -0.333280 -0.551859 0.067695 -0.111812 -0.306961 0.672799 -0.228674 -0.806076 -0.146831 -0.362056 0.673141 0.423993 -0.200069 0.414573 0.469305 0.503493 0.106965 -0.115668 -0.513612 -0.047208 0.046646 0.159788 0.078370 -0.204605 -0.435249 0.168505 -0.077624 -0.615140 -0.011615 0.679459 0.266224 0.678585 -0.574388 0.357670 -0.061160 -0.403153 0.524113 0.597522 -0.281389 0.235764 -0.972489 0.220395 0.006888 -0.211227 0.473152 0.256283 0.328458 0.181289 0.163810 -0.601550 -0.591084 -0.048098 -0.117403 1.100938 0.246708 -0.207297 0.292377 -0.578526 0.579295 0.763811 0.097762 0.056245 -0.206389 0.010411 0.542126 -0.680475 0.270812 0.332761 0.380457 -0.203463 0.365665 0.892717 -0.297922 -0.614904 0.084027 -0.228835 0.494462 0.875329 0.098945 0.254060 0.492304 -0.235986 0.584742 -0.197881 -0.020994 -0.569300 0.082297
发展/v 0.868905 -0.157280 -0.615907 -0.316376 -0.614796 0.772449 0.303070 -0.087356 0.178827 -0.049719 -0.003837 0.468475 0.041795 -0.309330 -0.532002 0.087594 -0.121009 -0.286200 0.652246 -0.252710 -0.776191 -0.135427 -0.336100 0.632413 0.425518 -0.169303 0.390791 0.488962 0.461325 0.073100 -0.123461 -0.523722 -0.052157 0.068915 0.126201 0.073390 -0.195416 -0.416108 0.152210 -0.078901 -0.606099 -0.020875 0.637045 0.250678 0.651326 -0.619307 0.310755 -0.109141 -0.400274 0.493648 0.588308 -0.251300 0.214327 -0.974343 0.207498 0.052794 -0.176937 0.478089 0.226134 0.279746 0.170736 0.138581 -0.625464 -0.562743 -0.043752 -0.129599 1.058645 0.294354 -0.199337 0.300198 -0.560356 0.541616 0.727881 0.111886 0.040846 -0.190733 0.017953 0.543485 -0.647449 0.225787 0.352169 0.362918 -0.212797 0.342405 0.837939 -0.308363 -0.595809 0.066535 -0.256847 0.463751 0.854035 0.096008 0.242845 0.458674 -0.236142 0.551331 -0.208641 -0.046951 -0.577728 0.139626
我们/rNP 0.852470 -0.174878 -0.590818 -0.319416 -0.645952 0.792829 0.311494 -0.114595 0.180716 -0.038028 0.030616 0.445095 0.021193 -0.319103 -0.534482 0.068375 -0.100210 -0.305456 0.656223 -0.232014 -0.775795 -0.146761 -0.338555 0.645558 0.414193 -0.179315 0.395574 0.460957 0.473137 0.092805 -0.122543 -0.497659 -0.035380 0.061164 0.143651 0.079208 -0.199137 -0.426787 0.147327 -0.065268 -0.593627 -0.015587 0.646635 0.259351 0.663385 -0.575970 0.341962 -0.071504 -0.390550 0.502101 0.576581 -0.265541 0.220093 -0.949709 0.218139 0.020553 -0.195411 0.463357 0.240919 0.301891 0.186256 0.153496 -0.599689 -0.578122 -0.048831 -0.112926 1.077971 0.248892 -0.206061 0.294268 -0.557592 0.559523 0.740312 0.106808 0.049706 -0.197591 0.017565 0.516789 -0.660291 0.248419 0.333854 0.364899 -0.199721 0.354792 0.856289 -0.293743 -0.597231 0.072466 -0.235135 0.488595 0.845391 0.094331 0.248248 0.466797 -0.223379 0.564718 -0.208407 -0.029423 -0.559048 0.103720
新/a 0.833762 -0.161823 -0.579428 -0.308796 -0.615230 0.752076 0.285040 -0.094139 0.165616 -0.038882 0.017215 0.447406 0.028722 -0.295036 -0.515509 0.081860 -0.108871 -0.289358 0.643618 -0.238796 -0.743715 -0.127457 -0.319397 0.620492 0.397188 -0.172183 0.373831 0.458164 0.457739 0.071244 -0.111112 -0.497461 -0.043121 0.057442 0.125827 0.070230 -0.197473 -0.405597 0.147133 -0.073126 -0.591696 -0.027446 0.616105 0.258258 0.634409 -0.590730 0.314410 -0.105161 -0.387750 0.482276 0.568343 -0.243075 0.206592 -0.928819 0.202387 0.032903 -0.180339 0.461026 0.212427 0.287232 0.176968 0.147276 -0.590822 -0.548558 -0.037861 -0.123770 1.025276 0.268748 -0.204982 0.286206 -0.534972 0.531298 0.707125 0.108782 0.033496 -0.184453 0.019334 0.522936 -0.636194 0.225726 0.322750 0.355996 -0.207540 0.350480 0.835081 -0.295955 -0.577520 0.067432 -0.240750 0.463530 0.838990 0.088405 0.237885 0.451048 -0.230271 0.541218 -0.195422 -0.037603 -0.548018 0.115959
；/wP 1.003592 -0.199418 -0.707283 -0.369811 -0.740873 0.898921 0.339605 -0.118943 0.207065 -0.062892 0.014849 0.539521 0.047020 -0.366319 -0.633119 0.091587 -0.130628 -0.340534 0.773153 -0.279718 -0.903620 -0.160000 -0.404339 0.741769 0.495716 -0.200574 0.453108 0.539796 0.558699 0.085380 -0.126279 -0.602154 -0.043982 0.081625 0.151742 0.084938 -0.220050 -0.483793 0.178264 -0.081111 -0.698097 -0.039838 0.753500 0.304914 0.758327 -0.689785 0.380041 -0.114531 -0.459985 0.580061 0.682358 -0.307093 0.240866 -1.113384 0.247114 0.037819 -0.218232 0.544923 0.270711 0.337948 0.207261 0.169052 -0.720078 -0.663045 -0.058653 -0.145723 1.254758 0.319794 -0.250609 0.340156 -0.655189 0.636028 0.855036 0.148556 0.059026 -0.226582 0.021992 0.623366 -0.771377 0.278564 0.395075 0.434184 -0.243801 0.423587 1.010987 -0.342779 -0.691945 0.084017 -0.280275 0.548999 0.995234 0.104665 0.280349 0.540291 -0.276435 0.640486 -0.250483 -0.050708 -0.671451 0.141683
地/uJDI 0.922428 -0.183123 -0.635348 -0.345487 -0.699705 0.839862 0.326206 -0.113084 0.200336 -0.049600 0.037715 0.478692 0.032375 -0.345223 -0.577097 0.078808 -0.121948 -0.318170 0.704390 -0.247548 -0.835563 -0.155428 -0.362224 0.685916 0.440962 -0.195073 0.414823 0.495078 0.507949 0.094662 -0.132830 -0.543679 -0.043588 0.072028 0.148117 0.094152 -0.203042 -0.456410 0.158961 -0.064732 -0.634768 -0.023610 0.687613 0.280222 0.704395 -0.623835 0.362971 -0.080132 -0.425668 0.525386 0.612537 -0.286525 0.226890 -1.023299 0.233142 0.031342 -0.204332 0.492012 0.257220 0.323264 0.195219 0.171931 -0.644941 -0.615892 -0.045178 -0.123342 1.144861 0.280640 -0.235557 0.314853 -0.590796 0.590220 0.788160 0.113054 0.061484 -0.208424 0.013732 0.564633 -0.699317 0.268661 0.357457 0.394685 -0.211805 0.378011 0.922696 -0.315088 -0.641377 0.078809 -0.251745 0.516712 0.909781 0.098756 0.252353 0.494829 -0.242867 0.611536 -0.223629 -0.037393 -0.596206 0.106782
从/p 0.919006 -0.188255 -0.634341 -0.337117 -0.675871 0.835231 0.312751 -0.105097 0.193279 -0.055358 0.016777 0.490307 0.042780 -0.334199 -0.566192 0.079281 -0.121374 -0.309398 0.707319 -0.253873 -0.823617 -0.151395 -0.356129 0.672900 0.448500 -0.189378 0.408277 0.494606 0.510409 0.085804 -0.117594 -0.548544 -0.045924 0.080005 0.141508 0.082014 -0.201199 -0.454862 0.154064 -0.073276 -0.636029 -0.036667 0.683737 0.276159 0.695569 -0.633087 0.351365 -0.089890 -0.418359 0.524456 0.615009 -0.279304 0.223890 -1.019015 0.227019 0.031826 -0.200061 0.500627 0.240667 0.312082 0.194076 0.155381 -0.643592 -0.612980 -0.052404 -0.136681 1.138045 0.283086 -0.231312 0.313524 -0.602656 0.578273 0.778301 0.124772 0.059202 -0.207762 0.025183 0.559606 -0.704160 0.258933 0.359466 0.385945 -0.217346 0.385148 0.917837 -0.313156 -0.629520 0.067437 -0.256215 0.508617 0.907261 0.093108 0.256736 0.492639 -0.245106 0.585326 -0.223353 -0.039310 -0.595653 0.118656
企业/n 0.869676 -0.161294 -0.610003 -0.322116 -0.633050 0.772782 0.299977 -0.090026 0.176422 -0.053603 0.010516 0.470698 0.046581 -0.317846 -0.546664 0.072129 -0.121242 -0.295622 0.662731 -0.250714 -0.771869 -0.136283 -0.339328 0.625408 0.432099 -0.169517 0.392382 0.483520 0.479296 0.078896 -0.110341 -0.524193 -0.054458 0.066310 0.130511 0.084278 -0.184712 -0.425607 0.162788 -0.072129 -0.594445 -0.024963 0.629265 0.255857 0.653349 -0.608972 0.319426 -0.095994 -0.403984 0.486187 0.591679 -0.256300 0.203652 -0.965059 0.199293 0.035143 -0.192929 0.474053 0.227087 0.285042 0.184889 0.136083 -0.624431 -0.573477 -0.046490 -0.142862 1.074924 0.290463 -0.215532 0.293792 -0.569472 0.551149 0.735211 0.130075 0.038535 -0.197128 0.023943 0.535644 -0.652040 0.235889 0.340315 0.357727 -0.223892 0.363075 0.857192 -0.290782 -0.592375 0.064950 -0.255833 0.466440 0.856210 0.091329 0.233357 0.465032 -0.233763 0.549929 -0.213409 -0.035569 -0.573518 0.128075
而/cC 0.916663 -0.193134 -0.642519 -0.342297 -0.694318 0.842005 0.324701 -0.107630 0.192965 -0.049200 0.021137 0.489009 0.035638 -0.340921 -0.575606 0.078585 -0.115180 -0.315318 0.703192 -0.249834 -0.827431 -0.152198 -0.364997 0.682687 0.445079 -0.196410 0.426622 0.501303 0.520042 0.098164 -0.121225 -0.552065 -0.040859 0.067363 0.154991 0.081301 -0.209125 -0.457150 0.164967 -0.079294 -0.639643 -0.025832 0.699779 0.286234 0.710163 -0.621677 0.359476 -0.083049 -0.423999 0.533108 0.615023 -0.276579 0.238151 -1.021542 0.224054 0.032538 -0.208513 0.493974 0.249162 0.330629 0.194136 0.161298 -0.650297 -0.613956 -0.052432 -0.134476 1.148505 0.278147 -0.224447 0.314048 -0.605184 0.594922 0.784708 0.113776 0.053476 -0.208613 0.022380 0.569492 -0.703726 0.264413 0.360337 0.394612 -0.222466 0.387503 0.925254 -0.311649 -0.639529 0.077299 -0.250215 0.505605 0.915159 0.094042 0.255580 0.504337 -0.243248 0.594773 -0.219014 -0.038158 -0.600940 0.105205
国家/n 0.890242 -0.168984 -0.625509 -0.326378 -0.641732 0.793772 0.312797 -0.090659 0.172772 -0.050697 0.009098 0.472009 0.040070 -0.324942 -0.547902 0.085436 -0.115448 -0.306432 0.682452 -0.251584 -0.797738 -0.144610 -0.343635 0.643391 0.431684 -0.184006 0.397001 0.483465 0.483158 0.071164 -0.120293 -0.536835 -0.042239 0.067873 0.137108 0.086148 -0.197828 -0.427279 0.154381 -0.067380 -0.618958 -0.017467 0.658032 0.259557 0.674708 -0.623989 0.330538 -0.098106 -0.400630 0.501631 0.601064 -0.262641 0.215127 -0.983012 0.214374 0.037027 -0.199924 0.488628 0.238729 0.296268 0.176385 0.150647 -0.624335 -0.584934 -0.046804 -0.126077 1.090316 0.290240 -0.213041 0.302700 -0.574593 0.567744 0.745784 0.126320 0.043828 -0.195751 0.013537 0.557256 -0.670436 0.240910 0.352843 0.377237 -0.211341 0.369108 0.874722 -0.319240 -0.614687 0.066493 -0.258083 0.474887 0.880690 0.092894 0.243645 0.482367 -0.243713 0.561959 -0.219756 -0.044419 -0.587889 0.132124
文化/n 0.749143 -0.138731 -0.520894 -0.270915 -0.521588 0.664819 0.268064 -0.074412 0.155524 -0.052348 -0.004336 0.406792 0.044020 -0.262413 -0.464239 0.071632 -0.103424 -0.238051 0.569494 -0.227199 -0.666189 -0.121956 -0.296678 0.544352 0.377976 -0.146929 0.327816 0.427466 0.401629 0.057158 -0.110648 -0.451850 -0.041926 0.065283 0.098307 0.076068 -0.172196 -0.366111 0.125905 -0.062178 -0.511099 -0.028179 0.545099 0.223028 0.560644 -0.534845 0.259508 -0.086028 -0.331434 0.419028 0.506122 -0.206360 0.172439 -0.836924 0.173257 0.043102 -0.159494 0.404674 0.196118 0.233603 0.153790 0.112123 -0.545867 -0.490339 -0.055382 -0.128001 0.908068 0.250775 -0.176807 0.249092 -0.487346 0.462991 0.633084 0.108550 0.037982 -0.160142 0.030660 0.470744 -0.559554 0.194210 0.301624 0.307231 -0.194013 0.305329 0.720544 -0.254048 -0.514534 0.056087 -0.224898 0.398668 0.737639 0.093314 0.210258 0.391260 -0.190633 0.458935 -0.178122 -0.047674 -0.493382 0.129006
还/d 0.901354 -0.180464 -0.629782 -0.336443 -0.680514 0.824849 0.315907 -0.106568 0.186841 -0.047419 0.027622 0.468201 0.035574 -0.330297 -0.556389 0.079135 -0.109439 -0.320748 0.688589 -0.248378 -0.810101 -0.156925 -0.349934 0.668820 0.434237 -0.188361 0.404179 0.472220 0.508103 0.091169 -0.124310 -0.530075 -0.038236 0.069786 0.149802 0.087107 -0.206877 -0.444894 0.160970 -0.069870 -0.626754 -0.027961 0.684446 0.270970 0.690573 -0.616215 0.356168 -0.083556 -0.418252 0.524566 0.602801 -0.281150 0.226246 -0.996069 0.229060 0.031762 -0.208201 0.484699 0.249297 0.322339 0.193855 0.161605 -0.631748 -0.600305 -0.050066 -0.120592 1.126675 0.276303 -0.219288 0.309741 -0.581498 0.584342 0.764430 0.113789 0.050489 -0.199802 0.017023 0.556524 -0.686385 0.262012 0.347844 0.393244 -0.207848 0.373609 0.902841 -0.303571 -0.618194 0.071716 -0.242688 0.494725 0.890419 0.087535 0.251523 0.484929 -0.238511 0.595758 -0.213698 -0.028708 -0.587702 0.110891
人民/n 0.851853 -0.169061 -0.603599 -0.319836 -0.619031 0.767523 0.304285 -0.086265 0.171029 -0.040628 0.008588 0.455875 0.032122 -0.309400 -0.513389 0.078079 -0.100044 -0.291738 0.654757 -0.242904 -0.763594 -0.131910 -0.336056 0.637252 0.407837 -0.169344 0.394610 0.462550 0.459069 0.065278 -0.137164 -0.510270 -0.048353 0.064760 0.142330 0.065266 -0.194400 -0.408122 0.154362 -0.056853 -0.590709 -0.010471 0.639970 0.255460 0.663349 -0.600247 0.321432 -0.093985 -0.385093 0.488164 0.583741 -0.254495 0.204885 -0.944411 0.201219 0.043939 -0.188521 0.466543 0.224177 0.292141 0.162912 0.138832 -0.603477 -0.573396 -0.044289 -0.128990 1.052351 0.281571 -0.189892 0.292822 -0.560648 0.548524 0.722645 0.106983 0.037227 -0.194068 0.016452 0.537126 -0.639176 0.226026 0.347676 0.353700 -0.205207 0.362882 0.847377 -0.306055 -0.588135 0.070316 -0.252322 0.463820 0.852226 0.094125 0.227795 0.461539 -0.226773 0.543495 -0.199165 -0.050312 -0.574277 0.130636
政府/n 0.845372 -0.161147 -0.591216 -0.311940 -0.608685 0.751558 0.286780 -0.089574 0.170210 -0.042793 0.007745 0.452266 0.039940 -0.306361 -0.514515 0.077016 -0.113473 -0.286255 0.648744 -0.239832 -0.752532 -0.136706 -0.333458 0.619234 0.410816 -0.168051 0.382837 0.449488 0.453087 0.076879 -0.119461 -0.508189 -0.047320 0.067774 0.132991 0.072791 -0.193292 -0.406571 0.152757 -0.061387 -0.590707 -0.025551 0.620408 0.258965 0.638656 -0.591612 0.318634 -0.087539 -0.379242 0.479871 0.569779 -0.251373 0.197855 -0.930449 0.200844 0.036735 -0.178948 0.461409 0.228258 0.283630 0.169688 0.145316 -0.594146 -0.556528 -0.039321 -0.120381 1.041453 0.275580 -0.198336 0.294128 -0.546584 0.529786 0.710044 0.113104 0.050041 -0.195615 0.015993 0.524715 -0.638798 0.229548 0.331035 0.359192 -0.198054 0.346165 0.830683 -0.291264 -0.575724 0.063928 -0.241078 0.455137 0.831174 0.086336 0.223892 0.453389 -0.230751 0.542388 -0.203366 -0.031460 -0.556185 0.122816
国际/n 0.800198 -0.157441 -0.560185 -0.291311 -0.578055 0.722050 0.271364 -0.082643 0.167372 -0.032652 0.011202 0.424307 0.025724 -0.293271 -0.490380 0.067819 -0.107559 -0.278431 0.616179 -0.228779 -0.717864 -0.124807 -0.302988 0.587642 0.388806 -0.166221 0.365278 0.432219 0.439359 0.066839 -0.110829 -0.487408 -0.044627 0.062032 0.129674 0.065687 -0.187903 -0.389301 0.142613 -0.072195 -0.568889 -0.019158 0.592844 0.238690 0.601518 -0.566472 0.301764 -0.093520 -0.369167 0.460668 0.536806 -0.238328 0.192685 -0.887618 0.200977 0.040130 -0.169676 0.436778 0.209913 0.271640 0.170632 0.139960 -0.575544 -0.519229 -0.038203 -0.124114 0.986451 0.263363 -0.196492 0.283895 -0.517767 0.508767 0.677849 0.116278 0.041134 -0.178671 0.016197 0.497598 -0.604729 0.216182 0.311910 0.340655 -0.196344 0.332106 0.787248 -0.286847 -0.554511 0.053952 -0.232072 0.430446 0.796160 0.084497 0.218958 0.430691 -0.221577 0.513914 -0.200399 -0.042237 -0.531985 0.117597
以/p 0.906861 -0.168805 -0.642371 -0.336221 -0.647012 0.809839 0.305292 -0.109236 0.194389 -0.060273 0.011471 0.478910 0.034495 -0.325468 -0.556993 0.077329 -0.130034 -0.299378 0.693155 -0.257753 -0.811880 -0.155322 -0.357276 0.657560 0.439686 -0.186611 0.402083 0.487865 0.491439 0.079338 -0.122918 -0.542749 -0.040185 0.074389 0.129799 0.091929 -0.199946 -0.435841 0.154514 -0.064609 -0.623569 -0.033187 0.664911 0.271129 0.683087 -0.628570 0.333320 -0.099629 -0.416795 0.515175 0.599789 -0.257740 0.216999 -1.001157 0.223458 0.047372 -0.196664 0.495500 0.244244 0.303109 0.190824 0.153914 -0.648057 -0.594524 -0.059856 -0.141277 1.119032 0.292377 -0.235672 0.310423 -0.588900 0.562393 0.761601 0.120848 0.051126 -0.199487 0.024058 0.554720 -0.683171 0.249806 0.361376 0.381404 -0.213713 0.371136 0.887937 -0.317035 -0.621118 0.073177 -0.260213 0.487017 0.886627 0.090237 0.243510 0.477185 -0.233236 0.572495 -0.215532 -0.038094 -0.598519 0.132180
后/f 0.958343 -0.190642 -0.672522 -0.354015 -0.718522 0.871574 0.333799 -0.115051 0.203478 -0.048626 0.026740 0.501869 0.039646 -0.346170 -0.590720 0.083123 -0.125007 -0.334046 0.735501 -0.264787 -0.859856 -0.165059 -0.366080 0.705507 0.458865 -0.201400 0.437586 0.513736 0.539472 0.100208 -0.128479 -0.566953 -0.045963 0.080088 0.160850 0.086473 -0.220175 -0.464607 0.171969 -0.075423 -0.669875 -0.031991 0.721594 0.294444 0.733174 -0.650954 0.377641 -0.091248 -0.437682 0.555514 0.643075 -0.289032 0.242003 -1.060944 0.241116 0.038202 -0.213045 0.520002 0.260084 0.340104 0.204770 0.173475 -0.670575 -0.641752 -0.048646 -0.129584 1.191099 0.290065 -0.232733 0.332167 -0.619737 0.617333 0.814174 0.128962 0.054202 -0.214774 0.017514 0.585193 -0.728965 0.271279 0.375776 0.414571 -0.223078 0.400819 0.957602 -0.332399 -0.657674 0.068727 -0.268758 0.525234 0.946419 0.100393 0.265119 0.521551 -0.265261 0.626011 -0.233547 -0.030067 -0.631501 0.113897
但/c 0.906047 -0.189752 -0.629757 -0.337846 -0.679969 0.821492 0.318438 -0.111693 0.187742 -0.053333 0.023813 0.480896 0.037967 -0.327459 -0.560490 0.075877 -0.113563 -0.317794 0.688381 -0.247338 -0.812200 -0.158469 -0.350979 0.666881 0.434885 -0.191413 0.413077 0.483825 0.505116 0.094729 -0.124370 -0.535498 -0.046544 0.065912 0.147012 0.079546 -0.203990 -0.445658 0.165208 -0.069029 -0.626098 -0.019862 0.678065 0.272793 0.692061 -0.620054 0.347775 -0.086384 -0.409280 0.521289 0.605396 -0.272487 0.230580 -1.002077 0.222691 0.024517 -0.201632 0.485765 0.242127 0.314879 0.188525 0.157427 -0.628583 -0.600500 -0.044750 -0.128749 1.122036 0.278133 -0.213969 0.310032 -0.593530 0.577251 0.771466 0.116187 0.056836 -0.199151 0.020964 0.549795 -0.690076 0.261716 0.356374 0.390975 -0.209522 0.377975 0.898738 -0.311669 -0.621612 0.067657 -0.252193 0.497378 0.896069 0.094454 0.249150 0.493949 -0.246727 0.582221 -0.215582 -0.036501 -0.594086 0.103867
美国/nS 0.851943 -0.170788 -0.596204 -0.313062 -0.631096 0.775269 0.294347 -0.095797 0.177293 -0.039472 0.024884 0.442506 0.029092 -0.309311 -0.525306 0.070677 -0.111972 -0.300555 0.656568 -0.229474 -0.767555 -0.143021 -0.328384 0.625640 0.409517 -0.174963 0.391025 0.451945 0.466235 0.082896 -0.110665 -0.506294 -0.046326 0.069710 0.144598 0.078672 -0.201049 -0.417195 0.152437 -0.066395 -0.588951 -0.026283 0.635826 0.269298 0.647493 -0.582193 0.330990 -0.091011 -0.391286 0.489481 0.567542 -0.259826 0.211085 -0.936396 0.207425 0.029838 -0.192545 0.454915 0.225610 0.300758 0.171375 0.158963 -0.600882 -0.559314 -0.038021 -0.112821 1.046983 0.267359 -0.211334 0.286415 -0.554393 0.542055 0.718666 0.115838 0.051299 -0.194088 0.012161 0.534781 -0.651846 0.233391 0.337565 0.365399 -0.202194 0.350508 0.844344 -0.295749 -0.584957 0.060766 -0.235919 0.464287 0.842414 0.088665 0.233791 0.457516 -0.237208 0.558031 -0.200162 -0.027599 -0.558588 0.111261
国/n 0.808763 -0.154507 -0.588368 -0.280159 -0.578369 0.719487 0.274849 -0.064330 0.130531 -0.029409 -0.020220 0.442230 0.054015 -0.278142 -0.462653 0.085332 -0.080310 -0.272675 0.634323 -0.209667 -0.747358 -0.131272 -0.296199 0.610030 0.359400 -0.181117 0.385039 0.447019 0.461809 0.055999 -0.121264 -0.484898 -0.052894 0.080499 0.144688 0.035006 -0.182784 -0.403501 0.125282 -0.059783 -0.561025 -0.016701 0.632844 0.242306 0.625429 -0.569102 0.311553 -0.124430 -0.382711 0.481588 0.560796 -0.226086 0.210118 -0.911363 0.209428 0.061272 -0.177224 0.440092 0.233417 0.261717 0.140569 0.132485 -0.575085 -0.516684 -0.025031 -0.106238 0.994167 0.254884 -0.158475 0.291541 -0.535192 0.506292 0.669164 0.092504 0.029155 -0.183681 -0.016850 0.498226 -0.624939 0.196940 0.347910 0.355745 -0.195211 0.323048 0.801432 -0.284945 -0.542113 0.062891 -0.229717 0.438433 0.834723 0.072900 0.227055 0.475691 -0.217262 0.533738 -0.197287 -0.023987 -0.557176 0.103190
次/qV 0.839717 -0.182907 -0.591384 -0.305651 -0.631601 0.777818 0.299341 -0.102107 0.159341 -0.032771 0.024903 0.437088 0.046257 -0.313476 -0.527614 0.077177 -0.101947 -0.298307 0.656422 -0.231608 -0.769951 -0.150287 -0.319637 0.630860 0.403421 -0.188642 0.385868 0.445463 0.485101 0.095972 -0.113569 -0.504887 -0.031923 0.067421 0.147255 0.058071 -0.200535 -0.411616 0.143952 -0.067058 -0.588816 -0.018399 0.648439 0.259755 0.653846 -0.583325 0.340986 -0.086268 -0.397591 0.490302 0.571731 -0.261409 0.208806 -0.930632 0.217765 0.028723 -0.190361 0.457509 0.234647 0.305420 0.172680 0.155925 -0.588476 -0.560091 -0.041726 -0.112795 1.055389 0.246545 -0.204401 0.295073 -0.557352 0.543975 0.732439 0.124193 0.057628 -0.194608 0.004849 0.528023 -0.659028 0.240940 0.340635 0.381728 -0.197469 0.364705 0.855287 -0.302039 -0.581819 0.063440 -0.228631 0.467052 0.843232 0.067307 0.239079 0.477810 -0.229773 0.552338 -0.211335 -0.034034 -0.554074 0.094505
发展/vN 0.693486 -0.127211 -0.482954 -0.256633 -0.505754 0.625293 0.240291 -0.067164 0.143181 -0.034140 0.002394 0.369553 0.034459 -0.244907 -0.421473 0.061918 -0.089970 -0.229899 0.524554 -0.199380 -0.624698 -0.111506 -0.270970 0.505130 0.345936 -0.131516 0.311479 0.397167 0.377816 0.054581 -0.101578 -0.411890 -0.046593 0.057863 0.109176 0.067078 -0.153999 -0.336798 0.118535 -0.060020 -0.494342 -0.011823 0.508947 0.203797 0.527756 -0.501037 0.252218 -0.081605 -0.328221 0.404643 0.466176 -0.206839 0.167494 -0.786294 0.170847 0.039287 -0.144543 0.377782 0.172810 0.227007 0.147250 0.109449 -0.507303 -0.450934 -0.032920 -0.105416 0.846549 0.230707 -0.161262 0.237860 -0.446304 0.437141 0.584658 0.098938 0.028456 -0.147795 0.016067 0.441012 -0.526724 0.190983 0.271337 0.287294 -0.173007 0.281094 0.680284 -0.254580 -0.478723 0.044317 -0.209112 0.380283 0.693058 0.074113 0.189998 0.377080 -0.189684 0.441806 -0.166858 -0.034318 -0.463157 0.105046
好/a 0.796383 -0.169446 -0.554336 -0.302077 -0.609618 0.740469 0.282401 -0.097771 0.171172 -0.049185 0.021215 0.419249 0.029668 -0.305451 -0.496289 0.069002 -0.097368 -0.275448 0.610305 -0.231312 -0.723051 -0.134127 -0.314805 0.593702 0.390869 -0.161572 0.369058 0.430886 0.442296 0.078806 -0.110318 -0.472665 -0.038947 0.062124 0.119921 0.073621 -0.175999 -0.396178 0.145849 -0.070013 -0.553569 -0.021718 0.604315 0.248049 0.621765 -0.539924 0.310469 -0.075749 -0.364378 0.458110 0.536284 -0.242212 0.195849 -0.891337 0.193657 0.025476 -0.178061 0.429227 0.221706 0.286082 0.169415 0.134114 -0.563490 -0.531633 -0.047016 -0.113178 1.006063 0.244964 -0.203850 0.272546 -0.523394 0.516800 0.683739 0.099829 0.046292 -0.189421 0.012809 0.489766 -0.608979 0.236187 0.309006 0.345742 -0.193071 0.331805 0.799221 -0.275527 -0.562477 0.073173 -0.226424 0.451618 0.800260 0.094581 0.229721 0.429871 -0.218658 0.526789 -0.196232 -0.036632 -0.517728 0.096262
他们/rNP 0.772504 -0.159183 -0.545645 -0.292326 -0.584036 0.713783 0.271580 -0.097355 0.160546 -0.039135 0.024664 0.409252 0.029236 -0.282937 -0.481262 0.063833 -0.098078 -0.267540 0.591334 -0.216238 -0.701517 -0.131986 -0.312385 0.571878 0.376278 -0.168059 0.352901 0.413737 0.432729 0.084651 -0.106276 -0.455250 -0.038965 0.055280 0.120399 0.067925 -0.179536 -0.384615 0.140736 -0.064241 -0.540012 -0.024046 0.581962 0.239613 0.603679 -0.527345 0.306185 -0.073349 -0.359037 0.452357 0.523203 -0.232158 0.197469 -0.868499 0.191318 0.022625 -0.177907 0.419505 0.212573 0.271400 0.164910 0.135363 -0.540782 -0.517927 -0.040781 -0.110499 0.971863 0.240691 -0.194270 0.267989 -0.505538 0.493763 0.664479 0.100899 0.045247 -0.176168 0.015626 0.473902 -0.601568 0.221509 0.302454 0.330188 -0.185692 0.322408 0.775382 -0.269970 -0.544736 0.060925 -0.217933 0.436817 0.771286 0.083972 0.213321 0.430195 -0.207338 0.506225 -0.185140 -0.032531 -0.507156 0.089757
与/cC 0.963986 -0.181214 -0.689017 -0.357495 -0.714356 0.874635 0.337240 -0.107555 0.208428 -0.049587 0.014755 0.511497 0.039604 -0.355260 -0.604996 0.087359 -0.127124 -0.331637 0.743463 -0.269031 -0.869823 -0.159530 -0.366840 0.705009 0.470728 -0.200823 0.435187 0.529095 0.525701 0.084231 -0.130695 -0.585047 -0.054155 0.080523 0.155305 0.089585 -0.213664 -0.467894 0.171773 -0.077168 -0.676938 -0.031090 0.720454 0.297858 0.735271 -0.681277 0.362365 -0.109723 -0.446639 0.554274 0.656707 -0.286796 0.237992 -1.080663 0.235560 0.035885 -0.222069 0.519854 0.255019 0.322284 0.208646 0.171537 -0.698322 -0.641679 -0.053857 -0.141352 1.196894 0.319806 -0.239842 0.335981 -0.627152 0.612696 0.812805 0.138147 0.051300 -0.222342 0.022423 0.601562 -0.737782 0.266098 0.388505 0.410553 -0.238259 0.404736 0.957156 -0.343474 -0.668741 0.072879 -0.274499 0.533917 0.959605 0.107432 0.271449 0.524337 -0.267631 0.624182 -0.241842 -0.037408 -0.645192 0.133188
多/m 0.923294 -0.193179 -0.671086 -0.346076 -0.705966 0.846788 0.325532 -0.117675 0.191154 -0.045010 0.023576 0.493482 0.052013 -0.347974 -0.580910 0.077341 -0.106095 -0.331416 0.726667 -0.266476 -0.829188 -0.146352 -0.361172 0.679624 0.447220 -0.202594 0.412096 0.507268 0.526871 0.087129 -0.112648 -0.558168 -0.044101 0.067425 0.157311 0.069288 -0.211695 -0.446749 0.167372 -0.080048 -0.654016 -0.033401 0.717580 0.292850 0.712693 -0.631749 0.374093 -0.114357 -0.451145 0.550736 0.626190 -0.278240 0.231058 -1.022340 0.219564 0.033283 -0.215427 0.505410 0.247347 0.331320 0.191968 0.182208 -0.639617 -0.613500 -0.032374 -0.125749 1.166711 0.288367 -0.228900 0.325910 -0.598640 0.605373 0.811824 0.141727 0.055451 -0.205554 -0.004459 0.571231 -0.718416 0.277114 0.376243 0.406671 -0.219902 0.408037 0.945992 -0.331219 -0.648370 0.089515 -0.258623 0.500530 0.927849 0.076815 0.258657 0.507729 -0.262659 0.599732 -0.223041 -0.034872 -0.618086 0.107874
着/uA 0.852063 -0.164806 -0.600703 -0.317296 -0.631622 0.770029 0.297777 -0.097806 0.173298 -0.051417 0.014005 0.453969 0.032765 -0.312806 -0.528681 0.075655 -0.105090 -0.297019 0.654836 -0.238385 -0.769611 -0.142644 -0.331755 0.627762 0.417738 -0.179469 0.379138 0.465578 0.473824 0.080235 -0.110466 -0.507677 -0.039333 0.068965 0.128985 0.082285 -0.194218 -0.421802 0.151262 -0.060339 -0.592108 -0.032115 0.644832 0.263077 0.653508 -0.585018 0.325153 -0.086669 -0.391674 0.481187 0.564426 -0.260721 0.215972 -0.951038 0.213499 0.035290 -0.190647 0.466063 0.225401 0.297611 0.183484 0.151425 -0.604318 -0.561992 -0.044538 -0.127084 1.053226 0.263026 -0.210854 0.291234 -0.551978 0.549602 0.720613 0.119808 0.049871 -0.200029 0.019426 0.531050 -0.654725 0.247129 0.329165 0.361128 -0.202033 0.355511 0.843874 -0.299916 -0.591181 0.064680 -0.240119 0.471966 0.842986 0.098088 0.243242 0.461776 -0.230476 0.551151 -0.205723 -0.031934 -0.560529 0.113616
把/p 0.955251 -0.187260 -0.659189 -0.357837 -0.707702 0.867616 0.330699 -0.107908 0.204055 -0.057200 0.017030 0.498762 0.041266 -0.344575 -0.597367 0.085565 -0.116254 -0.325165 0.726665 -0.260785 -0.863615 -0.163475 -0.377022 0.701783 0.455389 -0.191403 0.434173 0.512410 0.521536 0.095850 -0.126046 -0.562148 -0.040829 0.077257 0.154454 0.091211 -0.206481 -0.465257 0.163516 -0.078362 -0.658725 -0.029954 0.712579 0.290757 0.726989 -0.649756 0.365671 -0.087640 -0.433154 0.541593 0.637176 -0.289961 0.241514 -1.060485 0.237121 0.038455 -0.212073 0.515974 0.262921 0.334299 0.195915 0.164504 -0.663148 -0.634053 -0.052666 -0.140908 1.178651 0.288843 -0.238037 0.328364 -0.618444 0.606616 0.812688 0.125629 0.049580 -0.218443 0.019012 0.588775 -0.726416 0.264833 0.371416 0.401963 -0.228232 0.398430 0.943235 -0.322735 -0.650163 0.080623 -0.264727 0.523132 0.938195 0.097280 0.266174 0.518330 -0.251313 0.615609 -0.230193 -0.037082 -0.626976 0.117836
已/d 0.797977 -0.164002 -0.560372 -0.291700 -0.593874 0.734817 0.273221 -0.096360 0.160325 -0.040408 0.020547 0.427123 0.038181 -0.291246 -0.503043 0.067818 -0.094164 -0.278605 0.617228 -0.223013 -0.715318 -0.129683 -0.319340 0.595138 0.385117 -0.170482 0.360841 0.428137 0.448759 0.081125 -0.106783 -0.477204 -0.033801 0.051373 0.136759 0.064166 -0.179222 -0.390859 0.143772 -0.071775 -0.559180 -0.029468 0.613681 0.249134 0.609575 -0.546092 0.307191 -0.089580 -0.370706 0.464342 0.542689 -0.241384 0.201027 -0.886886 0.192030 0.030749 -0.179709 0.429845 0.215883 0.283147 0.162998 0.140561 -0.561724 -0.529628 -0.040486 -0.116533 0.997044 0.250807 -0.190210 0.278389 -0.517219 0.516469 0.685501 0.103747 0.040239 -0.179259 0.016627 0.490741 -0.611488 0.223090 0.314390 0.352540 -0.187140 0.335428 0.808185 -0.281008 -0.560415 0.067516 -0.222050 0.438229 0.797030 0.075126 0.215327 0.442658 -0.214149 0.520852 -0.191688 -0.024367 -0.528367 0.100374
了/y 0.765168 -0.169597 -0.526916 -0.284195 -0.604283 0.721619 0.276720 -0.111527 0.165381 -0.045890 0.038847 0.397151 0.017947 -0.291833 -0.482544 0.061473 -0.090637 -0.265128 0.585550 -0.207137 -0.700704 -0.133307 -0.297534 0.583219 0.371464 -0.161635 0.355867 0.403412 0.431506 0.092715 -0.100956 -0.441516 -0.028580 0.055184 0.121342 0.076884 -0.167088 -0.388179 0.139071 -0.065099 -0.528872 -0.028208 0.600462 0.237215 0.600447 -0.510538 0.307682 -0.059627 -0.359009 0.445234 0.515501 -0.244784 0.204166 -0.849344 0.198844 0.007228 -0.190958 0.407283 0.217329 0.276751 0.170197 0.151243 -0.522809 -0.523425 -0.038441 -0.093593 0.972125 0.215901 -0.193889 0.256799 -0.497224 0.498830 0.667602 0.099792 0.050700 -0.182432 0.019099 0.465254 -0.602946 0.238051 0.289816 0.328494 -0.175125 0.333423 0.776965 -0.261286 -0.539610 0.065381 -0.199186 0.444087 0.754959 0.086639 0.216653 0.421563 -0.196553 0.511899 -0.180488 -0.018064 -0.487521 0.069782
并/cC 0.899809 -0.170350 -0.632909 -0.328095 -0.647022 0.800901 0.303531 -0.093409 0.187198 -0.039764 0.013140 0.477050 0.039095 -0.330143 -0.555603 0.086292 -0.116382 -0.311501 0.687966 -0.244977 -0.805646 -0.148963 -0.343194 0.651953 0.433166 -0.180868 0.399567 0.478072 0.493203 0.079684 -0.125174 -0.534717 -0.048450 0.071224 0.140805 0.074806 -0.202746 -0.431406 0.159115 -0.070063 -0.623802 -0.025929 0.661048 0.276638 0.673682 -0.616710 0.342804 -0.095272 -0.404839 0.517556 0.606979 -0.263266 0.221927 -0.989200 0.217926 0.044946 -0.196209 0.478506 0.235736 0.306560 0.181104 0.152564 -0.631516 -0.583354 -0.047575 -0.129529 1.099747 0.290920 -0.217285 0.305404 -0.577429 0.568654 0.748971 0.122435 0.053490 -0.207351 0.016641 0.550588 -0.675871 0.245256 0.354578 0.379695 -0.214087 0.370876 0.887962 -0.311715 -0.607028 0.066599 -0.253280 0.482420 0.889829 0.088815 0.245874 0.480712 -0.249382 0.580365 -0.211675 -0.035106 -0.591767 0.120643
社会/n 0.792564 -0.149682 -0.552780 -0.284491 -0.573218 0.706954 0.265157 -0.080213 0.161698 -0.050826 0.005246 0.422225 0.037226 -0.286874 -0.484922 0.078234 -0.105967 -0.272900 0.603874 -0.227663 -0.710218 -0.121757 -0.308237 0.580245 0.393413 -0.163597 0.357000 0.432734 0.426193 0.064249 -0.110830 -0.477108 -0.048666 0.068411 0.117643 0.073033 -0.180768 -0.375878 0.137831 -0.067468 -0.558924 -0.022180 0.583619 0.230306 0.601101 -0.552722 0.294227 -0.093737 -0.360270 0.449080 0.534683 -0.227687 0.184382 -0.886758 0.190614 0.042721 -0.171136 0.437714 0.204034 0.252628 0.162736 0.121031 -0.573376 -0.517388 -0.045340 -0.125950 0.967257 0.259629 -0.192099 0.272219 -0.510498 0.491312 0.656016 0.114486 0.040556 -0.175916 0.017376 0.491778 -0.588222 0.215058 0.315447 0.328442 -0.193672 0.322217 0.781675 -0.272768 -0.542197 0.054606 -0.230369 0.431332 0.783572 0.080683 0.222534 0.420695 -0.213901 0.498288 -0.195024 -0.041197 -0.529684 0.122849
关系/n 0.826276 -0.162148 -0.586618 -0.294926 -0.611156 0.742622 0.286397 -0.082400 0.153020 -0.022617 -0.000828 0.440797 0.029101 -0.291727 -0.495224 0.073519 -0.093961 -0.298497 0.630506 -0.226666 -0.746550 -0.135769 -0.302752 0.623136 0.377845 -0.178810 0.378229 0.447491 0.452191 0.059343 -0.125914 -0.491741 -0.040829 0.055715 0.144605 0.058310 -0.188105 -0.392708 0.142179 -0.076576 -0.579499 -0.012001 0.625994 0.247968 0.631428 -0.577776 0.324427 -0.098858 -0.385797 0.487274 0.563240 -0.248235 0.209435 -0.923673 0.195078 0.036713 -0.178363 0.444104 0.222377 0.272506 0.165889 0.137787 -0.579917 -0.549060 -0.029139 -0.112857 1.018322 0.269073 -0.186315 0.299040 -0.537505 0.533325 0.696284 0.106493 0.033717 -0.189154 -0.002554 0.520104 -0.622606 0.213626 0.331957 0.358337 -0.204637 0.337005 0.822150 -0.308383 -0.568332 0.077409 -0.236511 0.446491 0.831219 0.091452 0.236368 0.468775 -0.229118 0.548500 -0.198073 -0.035989 -0.562970 0.115816
将/d 0.895975 -0.180045 -0.621759 -0.331192 -0.664485 0.810872 0.311944 -0.106577 0.182308 -0.037340 0.024656 0.475026 0.035011 -0.329799 -0.556157 0.080271 -0.106847 -0.311869 0.687609 -0.240139 -0.804282 -0.146033 -0.342215 0.659831 0.422837 -0.184199 0.401424 0.480100 0.495928 0.084661 -0.121165 -0.536185 -0.040438 0.069619 0.154125 0.076079 -0.205325 -0.440697 0.153886 -0.070833 -0.620021 -0.027420 0.670052 0.275257 0.686381 -0.619423 0.345819 -0.098053 -0.414199 0.521041 0.609767 -0.262958 0.229000 -0.993100 0.224411 0.032150 -0.201724 0.487827 0.240301 0.313095 0.180277 0.161959 -0.626195 -0.593529 -0.045528 -0.122952 1.115543 0.282041 -0.218698 0.309424 -0.580269 0.573181 0.761647 0.114647 0.047102 -0.209076 0.007249 0.559439 -0.680207 0.246577 0.351220 0.384059 -0.213842 0.379316 0.888942 -0.313223 -0.620695 0.078254 -0.255282 0.488685 0.894817 0.093741 0.243046 0.491329 -0.244569 0.587683 -0.212667 -0.029808 -0.593810 0.120028
《/wLB 0.829126 -0.158815 -0.609538 -0.314286 -0.617860 0.767129 0.270422 -0.096965 0.191176 -0.067229 0.027361 0.432768 0.037257 -0.318844 -0.501007 0.053485 -0.099493 -0.300186 0.648391 -0.244029 -0.767666 -0.157613 -0.323311 0.622721 0.381464 -0.184034 0.382394 0.443463 0.459549 0.091109 -0.108143 -0.509444 -0.029078 0.068635 0.127095 0.074395 -0.193899 -0.396983 0.145237 -0.054488 -0.581400 -0.024202 0.606026 0.250804 0.640426 -0.597656 0.323682 -0.101933 -0.367186 0.486191 0.559753 -0.232123 0.200200 -0.924192 0.207318 0.028670 -0.188761 0.460626 0.226298 0.270624 0.155106 0.163386 -0.581990 -0.547890 -0.044974 -0.098055 1.025646 0.273463 -0.222162 0.271971 -0.529084 0.520568 0.693783 0.123585 0.056899 -0.191495 0.010018 0.525648 -0.647001 0.234615 0.336386 0.364665 -0.190076 0.340068 0.854171 -0.288182 -0.588093 0.045696 -0.231226 0.456947 0.822153 0.096575 0.248581 0.443233 -0.214696 0.565891 -0.203510 -0.055334 -0.581824 0.108128
为/v 0.839188 -0.158678 -0.601925 -0.307875 -0.611734 0.759984 0.296634 -0.103543 0.171701 -0.056203 0.005711 0.444706 0.032484 -0.304779 -0.531508 0.068878 -0.112340 -0.283812 0.647763 -0.246314 -0.752541 -0.137361 -0.335359 0.609902 0.404913 -0.171546 0.380764 0.467364 0.463738 0.075951 -0.119020 -0.506391 -0.038299 0.084007 0.116013 0.086336 -0.186008 -0.416192 0.142295 -0.064328 -0.573876 -0.027499 0.615946 0.257808 0.638081 -0.578885 0.307120 -0.090722 -0.384479 0.470146 0.559189 -0.240683 0.197678 -0.939986 0.209094 0.050792 -0.181237 0.451215 0.221838 0.273723 0.180116 0.143870 -0.600832 -0.552139 -0.056709 -0.133217 1.042160 0.277274 -0.219573 0.286284 -0.550130 0.527710 0.708038 0.117454 0.046216 -0.190376 0.030428 0.517477 -0.636936 0.235458 0.335969 0.353279 -0.209843 0.345005 0.835733 -0.281986 -0.575328 0.059578 -0.242731 0.468236 0.836485 0.095886 0.235814 0.443731 -0.214174 0.529687 -0.202395 -0.032916 -0.552335 0.120368
》/wRB 0.814346 -0.143122 -0.580686 -0.292758 -0.579707 0.734919 0.270302 -0.095960 0.181463 -0.064559 0.034054 0.411234 0.033356 -0.290603 -0.485976 0.050303 -0.116174 -0.271923 0.608195 -0.232095 -0.727465 -0.142340 -0.314982 0.574936 0.369412 -0.160690 0.381838 0.413035 0.449682 0.089873 -0.099969 -0.500609 -0.034444 0.078047 0.105643 0.061257 -0.201302 -0.385413 0.125972 -0.055917 -0.543584 -0.015803 0.585955 0.245874 0.605110 -0.554988 0.304000 -0.100534 -0.360139 0.453051 0.544409 -0.232724 0.201747 -0.898745 0.212803 0.025220 -0.189272 0.439756 0.207096 0.267628 0.160271 0.156378 -0.571019 -0.518026 -0.035513 -0.102484 0.989556 0.249477 -0.209624 0.276594 -0.505598 0.495122 0.667675 0.093146 0.064607 -0.201104 0.012731 0.522147 -0.610433 0.221444 0.326285 0.328360 -0.183734 0.315496 0.817697 -0.282013 -0.571447 0.046955 -0.233499 0.452852 0.812552 0.098404 0.230409 0.446290 -0.195152 0.519516 -0.210818 -0.042236 -0.544891 0.102035
003-1 0.837642 -0.184159 -0.622975 -0.289584 -0.634070 0.769428 0.262769 -0.082021 0.168458 -0.037181 0.036756 0.427072 0.008897 -0.332962 -0.520036 0.056245 -0.128975 -0.299531 0.661988 -0.241421 -0.771677 -0.141278 -0.313615 0.614581 0.381723 -0.174289 0.389234 0.437471 0.469852 0.045042 -0.096746 -0.521959 -0.053606 0.099511 0.137064 0.064543 -0.206144 -0.418464 0.142289 -0.076647 -0.589730 -0.044446 0.623116 0.288153 0.617656 -0.568810 0.332576 -0.096844 -0.371090 0.456386 0.561181 -0.260037 0.210311 -0.893767 0.207510 0.017303 -0.188159 0.459862 0.207597 0.284566 0.180249 0.176211 -0.596957 -0.537617 -0.039557 -0.109809 1.033709 0.249450 -0.220784 0.312331 -0.556765 0.530638 0.690644 0.109219 0.052108 -0.219208 -0.002995 0.550473 -0.651566 0.217841 0.309047 0.348100 -0.167059 0.353671 0.837202 -0.305723 -0.601004 0.069074 -0.224404 0.449938 0.838200 0.102004 0.252956 0.452678 -0.250015 0.562703 -0.219626 -0.029560 -0.563131 0.100458
009-1 0.908301 -0.188237 -0.628722 -0.334190 -0.687497 0.829063 0.306427 -0.115567 0.196088 -0.049326 0.036507 0.471949 0.036607 -0.340933 -0.570037 0.081634 -0.107341 -0.321856 0.697320 -0.244897 -0.820259 -0.145640 -0.348868 0.669010 0.436587 -0.181773 0.415918 0.483765 0.511378 0.085925 -0.117555 -0.539450 -0.043468 0.067470 0.145679 0.082545 -0.202170 -0.450308 0.160247 -0.072888 -0.630005 -0.033683 0.691976 0.290018 0.702870 -0.623351 0.350607 -0.096908 -0.420260 0.532643 0.613366 -0.276353 0.233341 -1.004401 0.220790 0.034623 -0.202614 0.486228 0.240337 0.313955 0.196761 0.160901 -0.643875 -0.598530 -0.042348 -0.120449 1.135658 0.278529 -0.224161 0.315589 -0.586440 0.586950 0.777503 0.117446 0.047793 -0.207968 0.017881 0.569013 -0.694788 0.254335 0.354372 0.387341 -0.208911 0.388185 0.915143 -0.313691 -0.629664 0.078971 -0.258685 0.509923 0.896444 0.094700 0.251140 0.498578 -0.242565 0.598501 -0.221834 -0.025862 -0.591436 0.114803
005-1 0.821465 -0.166171 -0.579567 -0.302109 -0.618081 0.745066 0.274799 -0.105533 0.175421 -0.040489 0.027133 0.431278 0.026885 -0.310514 -0.509601 0.074244 -0.101536 -0.287769 0.631564 -0.231519 -0.738931 -0.138580 -0.313676 0.603104 0.389364 -0.163952 0.372785 0.442757 0.456474 0.073175 -0.103796 -0.486032 -0.035881 0.066179 0.129152 0.075100 -0.189414 -0.410383 0.144527 -0.074771 -0.570161 -0.026117 0.623086 0.256450 0.629736 -0.568043 0.320506 -0.086265 -0.376443 0.474160 0.557697 -0.256535 0.208557 -0.908671 0.204554 0.028122 -0.190373 0.444145 0.217338 0.279431 0.184017 0.146524 -0.574593 -0.544382 -0.038292 -0.102640 1.030862 0.251663 -0.213946 0.289757 -0.529261 0.522461 0.699481 0.104939 0.040285 -0.195280 0.012276 0.516198 -0.632338 0.231419 0.318554 0.351618 -0.182599 0.350748 0.829382 -0.286986 -0.572610 0.064407 -0.226856 0.459431 0.813199 0.092201 0.237695 0.450530 -0.219643 0.546171 -0.211609 -0.023665 -0.537721 0.107771
008-1 0.854339 -0.171962 -0.600912 -0.323160 -0.651473 0.782894 0.287430 -0.115765 0.185645 -0.048654 0.027540 0.450734 0.025425 -0.320290 -0.535196 0.068178 -0.099844 -0.297945 0.652312 -0.235951 -0.771313 -0.144534 -0.332856 0.633587 0.406763 -0.171595 0.392620 0.465186 0.480496 0.080358 -0.106342 -0.498676 -0.034256 0.067460 0.129323 0.082092 -0.194455 -0.419656 0.146564 -0.075825 -0.590344 -0.030463 0.646340 0.267267 0.663686 -0.587251 0.335938 -0.089585 -0.392167 0.500097 0.579061 -0.261055 0.214119 -0.946457 0.215302 0.031471 -0.196094 0.457290 0.227114 0.289628 0.190682 0.152764 -0.606990 -0.573175 -0.048844 -0.115599 1.071609 0.261918 -0.219677 0.301319 -0.547988 0.551307 0.729234 0.112280 0.044078 -0.196154 0.018695 0.532497 -0.660612 0.251225 0.333375 0.370557 -0.190893 0.362233 0.867170 -0.291737 -0.597667 0.068119 -0.240275 0.484100 0.852407 0.089179 0.247214 0.469900 -0.231538 0.561794 -0.217474 -0.021420 -0.562795 0.108572
001-1 0.794817 -0.171327 -0.587608 -0.292449 -0.608779 0.740645 0.258904 -0.098419 0.175931 -0.037304 0.031521 0.413233 0.022357 -0.314683 -0.505476 0.060810 -0.098913 -0.285142 0.624892 -0.226377 -0.732825 -0.131808 -0.299895 0.599357 0.375045 -0.171088 0.366792 0.429943 0.462062 0.067731 -0.093187 -0.483177 -0.043459 0.079269 0.125651 0.065690 -0.188838 -0.399623 0.142319 -0.069777 -0.558457 -0.036085 0.602749 0.273328 0.610298 -0.550182 0.316837 -0.090641 -0.368824 0.453691 0.538989 -0.252441 0.200290 -0.880426 0.201483 0.020905 -0.183218 0.441649 0.209428 0.271668 0.187435 0.161199 -0.575761 -0.524488 -0.040917 -0.100907 1.007597 0.242643 -0.211179 0.295841 -0.524175 0.509210 0.669338 0.108212 0.047756 -0.203906 0.004953 0.513985 -0.630518 0.217512 0.306982 0.334536 -0.176422 0.350993 0.806351 -0.290996 -0.573795 0.076302 -0.222199 0.442197 0.808428 0.089314 0.234814 0.436509 -0.229726 0.543276 -0.203734 -0.026532 -0.528284 0.102239
004-1 0.823402 -0.177087 -0.602040 -0.291579 -0.620443 0.755958 0.269235 -0.100049 0.170944 -0.033606 0.036345 0.419249 0.018455 -0.318280 -0.504837 0.059422 -0.111922 -0.290578 0.640039 -0.240828 -0.747194 -0.143187 -0.308040 0.608999 0.380572 -0.180494 0.381397 0.444450 0.456681 0.058825 -0.090992 -0.504081 -0.045193 0.075236 0.140489 0.058285 -0.199930 -0.413397 0.137550 -0.070906 -0.587077 -0.032842 0.632909 0.278084 0.628016 -0.570033 0.329490 -0.099100 -0.379390 0.469616 0.563134 -0.258995 0.213218 -0.899232 0.209820 0.027752 -0.181647 0.454948 0.213196 0.284054 0.179037 0.164445 -0.588816 -0.538551 -0.028648 -0.102772 1.026887 0.253347 -0.217763 0.289929 -0.541140 0.536062 0.699050 0.108062 0.053920 -0.210140 0.007225 0.536435 -0.646330 0.227168 0.311433 0.360947 -0.175623 0.349275 0.833105 -0.296461 -0.579120 0.076227 -0.217171 0.457694 0.826556 0.099918 0.240860 0.452672 -0.231267 0.560341 -0.219558 -0.024207 -0.555655 0.107383
006-1 0.827250 -0.166460 -0.578664 -0.304349 -0.618416 0.753027 0.280504 -0.113028 0.174303 -0.044867 0.027240 0.440054 0.033256 -0.304993 -0.520389 0.068514 -0.101498 -0.287787 0.628028 -0.229936 -0.748476 -0.135087 -0.313879 0.612140 0.397742 -0.164254 0.375681 0.444361 0.462931 0.078979 -0.103279 -0.483199 -0.034480 0.064742 0.132693 0.083047 -0.181330 -0.415094 0.140666 -0.071961 -0.579960 -0.023392 0.630533 0.264190 0.636009 -0.564614 0.316447 -0.084432 -0.383834 0.485351 0.559125 -0.250300 0.209232 -0.916568 0.205242 0.032373 -0.187979 0.443704 0.227421 0.288367 0.179657 0.154852 -0.584502 -0.544899 -0.044707 -0.107700 1.035446 0.252205 -0.208654 0.282418 -0.536390 0.523861 0.704936 0.109204 0.040198 -0.195146 0.011052 0.510306 -0.634163 0.231305 0.316367 0.353851 -0.187421 0.349858 0.830007 -0.292286 -0.577148 0.061068 -0.232905 0.460616 0.816593 0.088486 0.237371 0.449789 -0.224336 0.550927 -0.210420 -0.026599 -0.545227 0.106381
007-1 0.843876 -0.165565 -0.582272 -0.316238 -0.631814 0.766325 0.287701 -0.112801 0.185159 -0.048890 0.031927 0.447649 0.030679 -0.315577 -0.527437 0.073119 -0.096097 -0.285537 0.638635 -0.235521 -0.759807 -0.135233 -0.319413 0.624791 0.410501 -0.165976 0.379738 0.458564 0.469280 0.083054 -0.110998 -0.489539 -0.036375 0.064449 0.132261 0.077324 -0.185135 -0.420027 0.146826 -0.065852 -0.584640 -0.030543 0.631644 0.261886 0.652739 -0.579327 0.328682 -0.085213 -0.379478 0.489240 0.566616 -0.254458 0.213649 -0.927161 0.212337 0.025029 -0.192420 0.446497 0.227861 0.282031 0.188940 0.153375 -0.587506 -0.560500 -0.041784 -0.112763 1.043136 0.261893 -0.212414 0.290686 -0.537292 0.530828 0.716649 0.110950 0.044296 -0.194334 0.020179 0.519155 -0.645764 0.237234 0.326802 0.358234 -0.195578 0.359198 0.837789 -0.293211 -0.586185 0.062484 -0.236168 0.467103 0.827524 0.092812 0.239987 0.459395 -0.218291 0.555654 -0.214318 -0.030975 -0.543979 0.111155
002-1 0.856271 -0.183627 -0.638184 -0.304412 -0.642132 0.780676 0.279489 -0.087784 0.175871 -0.033789 0.038958 0.435811 0.006477 -0.337429 -0.521222 0.050259 -0.129741 -0.303786 0.672472 -0.247253 -0.790075 -0.155128 -0.312000 0.635370 0.391522 -0.192808 0.402140 0.456101 0.481553 0.057655 -0.089145 -0.532210 -0.058555 0.082371 0.151982 0.058770 -0.206361 -0.432635 0.149597 -0.067893 -0.613318 -0.036153 0.654362 0.293827 0.645977 -0.585850 0.343603 -0.104263 -0.392785 0.483726 0.578923 -0.256867 0.225349 -0.942431 0.217220 0.017285 -0.191307 0.472530 0.220145 0.303488 0.190134 0.171756 -0.624054 -0.553695 -0.026592 -0.114138 1.073061 0.273751 -0.229038 0.314844 -0.573843 0.559140 0.722118 0.108947 0.061698 -0.226390 -0.000530 0.566865 -0.686560 0.233834 0.327332 0.380902 -0.179114 0.369959 0.863937 -0.319629 -0.604843 0.082573 -0.219174 0.468958 0.866619 0.099030 0.248551 0.478146 -0.250670 0.588445 -0.228817 -0.016429 -0.579447 0.109123
向/p 0.898217 -0.170057 -0.621837 -0.333875 -0.660785 0.805470 0.298954 -0.106420 0.178689 -0.042382 0.022496 0.470364 0.034317 -0.326653 -0.557889 0.074189 -0.115835 -0.311665 0.679919 -0.246486 -0.806501 -0.150306 -0.347448 0.654952 0.427593 -0.188666 0.409823 0.483181 0.500614 0.084304 -0.114620 -0.533352 -0.050159 0.078334 0.140173 0.085035 -0.197298 -0.430789 0.152904 -0.066038 -0.624632 -0.032197 0.659733 0.273087 0.685585 -0.617319 0.341112 -0.093568 -0.409054 0.508946 0.605644 -0.274986 0.224055 -0.983350 0.216757 0.034109 -0.199022 0.476833 0.244547 0.299944 0.192584 0.156319 -0.637061 -0.585658 -0.044456 -0.131967 1.104385 0.279577 -0.223168 0.310608 -0.584455 0.567082 0.754644 0.122459 0.055040 -0.211271 0.017908 0.558869 -0.673339 0.240340 0.353600 0.375143 -0.214185 0.377497 0.896289 -0.308490 -0.612313 0.069456 -0.246322 0.485040 0.879835 0.093501 0.248179 0.483840 -0.245808 0.572950 -0.214199 -0.036154 -0.597256 0.118232
元/qN 0.896486 -0.181699 -0.636410 -0.334622 -0.673268 0.811058 0.304318 -0.112535 0.185480 -0.048462 0.022225 0.469604 0.048012 -0.329384 -0.560755 0.070467 -0.106500 -0.306039 0.693846 -0.248869 -0.802987 -0.141021 -0.354597 0.659312 0.426772 -0.183363 0.397900 0.481348 0.508549 0.083891 -0.116316 -0.530084 -0.046803 0.062607 0.139493 0.076491 -0.200024 -0.438069 0.164815 -0.076081 -0.621327 -0.029781 0.670132 0.283429 0.683272 -0.605127 0.340696 -0.091028 -0.423814 0.524364 0.608938 -0.278037 0.229114 -0.983616 0.220828 0.037761 -0.202563 0.477642 0.249834 0.305059 0.192066 0.168490 -0.633559 -0.592774 -0.038036 -0.119522 1.115603 0.282692 -0.218330 0.303417 -0.570605 0.580102 0.767994 0.119458 0.045765 -0.193651 0.007014 0.556161 -0.688319 0.256618 0.347812 0.391383 -0.213374 0.378032 0.898754 -0.319437 -0.619391 0.079649 -0.255366 0.491422 0.881333 0.078913 0.250898 0.484593 -0.247435 0.574583 -0.216627 -0.024340 -0.582046 0.118793
进行/v 0.824552 -0.158531 -0.580297 -0.301183 -0.601792 0.745242 0.286291 -0.089652 0.169927 -0.042710 0.017281 0.438415 0.036728 -0.297436 -0.512941 0.072631 -0.112187 -0.286035 0.631970 -0.228230 -0.733467 -0.127722 -0.319007 0.592807 0.394944 -0.162417 0.371914 0.442527 0.456032 0.071409 -0.108394 -0.497188 -0.037350 0.063145 0.133094 0.072171 -0.189685 -0.401134 0.149209 -0.063014 -0.579951 -0.020790 0.608195 0.252241 0.631461 -0.579818 0.317495 -0.083438 -0.375250 0.471680 0.551771 -0.245066 0.197269 -0.918462 0.202755 0.043290 -0.181287 0.445070 0.227060 0.280727 0.175789 0.143577 -0.585863 -0.541818 -0.039227 -0.127478 1.023124 0.263360 -0.199225 0.286984 -0.540313 0.523309 0.690671 0.111981 0.046999 -0.185680 0.017461 0.515556 -0.624408 0.225133 0.328781 0.353755 -0.196578 0.338344 0.823769 -0.294456 -0.563950 0.055464 -0.236617 0.443153 0.819807 0.083241 0.225949 0.443843 -0.217612 0.534117 -0.197804 -0.036733 -0.543436 0.120375
建设/vN 0.845479 -0.155961 -0.604939 -0.310545 -0.613254 0.766766 0.286869 -0.089777 0.177780 -0.046246 0.007867 0.447577 0.040693 -0.317184 -0.525293 0.080378 -0.111394 -0.296151 0.652811 -0.232716 -0.765654 -0.130149 -0.338881 0.622183 0.414301 -0.168473 0.382038 0.465746 0.464369 0.067985 -0.107629 -0.518655 -0.052840 0.073873 0.139841 0.071442 -0.197038 -0.412069 0.153596 -0.063395 -0.592693 -0.029297 0.631651 0.261063 0.642235 -0.594691 0.312370 -0.092536 -0.395435 0.480984 0.577727 -0.252792 0.206964 -0.948399 0.199084 0.036448 -0.186263 0.466944 0.218692 0.289754 0.173976 0.135434 -0.606539 -0.555764 -0.051786 -0.134204 1.052099 0.280680 -0.213081 0.288391 -0.557265 0.540379 0.712021 0.111793 0.045598 -0.190940 0.017082 0.530415 -0.644704 0.224559 0.328575 0.362812 -0.202260 0.349252 0.839814 -0.305771 -0.587822 0.064434 -0.242932 0.457248 0.838340 0.091076 0.241802 0.454303 -0.229273 0.551682 -0.214594 -0.035489 -0.567757 0.117620
来/v 0.799145 -0.169477 -0.560641 -0.301299 -0.612039 0.738473 0.281833 -0.105367 0.176995 -0.048145 0.028217 0.417826 0.026217 -0.296350 -0.511701 0.064112 -0.098668 -0.277824 0.614082 -0.218925 -0.730398 -0.141824 -0.309705 0.591195 0.388359 -0.172027 0.362473 0.429349 0.457349 0.081601 -0.106843 -0.481907 -0.035129 0.060589 0.122520 0.074364 -0.181720 -0.397703 0.141938 -0.065931 -0.558333 -0.032074 0.606062 0.252827 0.613895 -0.545617 0.311761 -0.077262 -0.374259 0.464457 0.543600 -0.247125 0.207553 -0.887511 0.205415 0.020221 -0.187545 0.426898 0.220086 0.285389 0.173354 0.149475 -0.566730 -0.535088 -0.039497 -0.109814 1.006912 0.238007 -0.196496 0.277612 -0.528963 0.520525 0.691707 0.110708 0.055166 -0.185605 0.012417 0.498641 -0.621259 0.230231 0.310774 0.343435 -0.182993 0.336170 0.809535 -0.273817 -0.555387 0.060027 -0.223690 0.455959 0.796029 0.080254 0.229090 0.430288 -0.215177 0.531742 -0.200075 -0.025177 -0.521057 0.095274
时/nT 0.909636 -0.189451 -0.631305 -0.334705 -0.681524 0.836678 0.322805 -0.109706 0.194938 -0.042917 0.029880 0.478987 0.035480 -0.335621 -0.562360 0.070251 -0.113531 -0.325702 0.696991 -0.244163 -0.822113 -0.160039 -0.353634 0.679341 0.430901 -0.191854 0.413490 0.478622 0.513254 0.097257 -0.121924 -0.534658 -0.037484 0.064467 0.153715 0.086720 -0.213333 -0.447162 0.157951 -0.069108 -0.630949 -0.031949 0.691073 0.286071 0.696502 -0.618162 0.352685 -0.087785 -0.412267 0.528167 0.610692 -0.282333 0.236428 -1.002881 0.230581 0.026588 -0.204721 0.487901 0.254665 0.329534 0.188997 0.162022 -0.637458 -0.611578 -0.048734 -0.125876 1.135188 0.277772 -0.218317 0.307831 -0.596124 0.593198 0.772287 0.124721 0.062479 -0.213342 0.011430 0.561595 -0.700901 0.264004 0.355252 0.391042 -0.216852 0.388474 0.913647 -0.318467 -0.627252 0.076705 -0.248310 0.506268 0.903988 0.095263 0.255536 0.492225 -0.244773 0.605779 -0.214202 -0.026826 -0.593049 0.109807
市场/n 0.840123 -0.158888 -0.578545 -0.303223 -0.606973 0.753494 0.282910 -0.090563 0.173680 -0.043660 0.009046 0.443122 0.035690 -0.299823 -0.521456 0.069438 -0.106712 -0.280296 0.632627 -0.233496 -0.744633 -0.138315 -0.326880 0.606560 0.402421 -0.169192 0.378381 0.462643 0.453705 0.072432 -0.110776 -0.497507 -0.046751 0.062099 0.126987 0.078441 -0.193311 -0.408331 0.151519 -0.070120 -0.585292 -0.025506 0.620273 0.252065 0.626948 -0.583003 0.312312 -0.089531 -0.386927 0.474451 0.562028 -0.243220 0.208811 -0.927604 0.202075 0.038078 -0.182832 0.452378 0.218011 0.281137 0.169718 0.137232 -0.595069 -0.540899 -0.042537 -0.121009 1.027106 0.270984 -0.204890 0.280503 -0.541879 0.527919 0.708456 0.110880 0.044967 -0.185364 0.020115 0.519136 -0.630639 0.225196 0.326941 0.350932 -0.207800 0.341975 0.820563 -0.293286 -0.575157 0.059052 -0.243585 0.452216 0.828364 0.090001 0.232997 0.444656 -0.226047 0.528773 -0.197961 -0.036498 -0.550988 0.118726
记者/n 0.833003 -0.174826 -0.614293 -0.287030 -0.610303 0.752121 0.269307 -0.076278 0.168917 -0.026191 0.035317 0.410092 0.008545 -0.328200 -0.503148 0.049817 -0.129957 -0.293396 0.659552 -0.233240 -0.754762 -0.144400 -0.309515 0.600248 0.380154 -0.170546 0.379121 0.425688 0.465286 0.049033 -0.091233 -0.510021 -0.052472 0.098964 0.135657 0.053831 -0.204881 -0.420446 0.134674 -0.061364 -0.581054 -0.040869 0.624943 0.286975 0.608791 -0.566543 0.336409 -0.101110 -0.364276 0.454304 0.553913 -0.254485 0.213360 -0.879998 0.217326 0.022236 -0.177000 0.457071 0.212853 0.277639 0.174034 0.160736 -0.580036 -0.525893 -0.029571 -0.105220 1.020459 0.242805 -0.222966 0.298671 -0.550926 0.529840 0.695538 0.121446 0.067358 -0.217215 -0.006855 0.541099 -0.654442 0.223805 0.301345 0.353938 -0.165866 0.340938 0.815285 -0.306253 -0.587076 0.075029 -0.224937 0.441113 0.820335 0.104332 0.239318 0.452116 -0.247719 0.546733 -0.225453 -0.018714 -0.555194 0.103471
之/uJDE 0.829909 -0.162892 -0.582748 -0.306038 -0.623510 0.755640 0.285524 -0.103642 0.177981 -0.045095 0.016435 0.433363 0.031060 -0.312849 -0.513513 0.070969 -0.109624 -0.284024 0.628969 -0.231693 -0.753030 -0.146006 -0.317434 0.616684 0.402712 -0.174857 0.374600 0.448770 0.462415 0.076710 -0.113733 -0.490219 -0.038404 0.071884 0.120200 0.069471 -0.182170 -0.409665 0.142661 -0.070580 -0.571588 -0.024233 0.631345 0.260546 0.634651 -0.569290 0.312469 -0.091875 -0.378479 0.473156 0.548670 -0.247867 0.203882 -0.914658 0.203141 0.026824 -0.197487 0.441645 0.217234 0.281067 0.174383 0.156430 -0.583994 -0.550776 -0.039468 -0.114737 1.033582 0.258195 -0.209746 0.284086 -0.539510 0.530885 0.700853 0.109250 0.047012 -0.192462 0.013256 0.514991 -0.633364 0.237919 0.328107 0.345527 -0.197642 0.352143 0.827484 -0.282574 -0.570554 0.064813 -0.228391 0.460827 0.824974 0.090289 0.233094 0.444600 -0.215300 0.539645 -0.209283 -0.037197 -0.548479 0.107135
又/d 0.826637 -0.176071 -0.573150 -0.307616 -0.627453 0.754087 0.284908 -0.104605 0.179109 -0.040801 0.029165 0.428055 0.031590 -0.303484 -0.520180 0.073660 -0.104297 -0.286195 0.634277 -0.223424 -0.744808 -0.145719 -0.322939 0.612174 0.397310 -0.177711 0.373867 0.441696 0.459308 0.085690 -0.106165 -0.483145 -0.040054 0.054861 0.128070 0.074078 -0.184470 -0.401605 0.148944 -0.068973 -0.569575 -0.030129 0.633186 0.256935 0.629829 -0.563798 0.320061 -0.083033 -0.373977 0.478914 0.553196 -0.257484 0.209644 -0.908911 0.203593 0.022392 -0.193047 0.438630 0.219650 0.286317 0.172642 0.145425 -0.576857 -0.550321 -0.046861 -0.116393 1.031091 0.250460 -0.211454 0.284902 -0.532756 0.533599 0.711098 0.109790 0.055877 -0.190079 0.017622 0.505680 -0.639513 0.235338 0.324110 0.356401 -0.191644 0.351115 0.826734 -0.279679 -0.571568 0.067488 -0.225739 0.464663 0.821121 0.083737 0.234531 0.451285 -0.224447 0.537672 -0.200840 -0.023905 -0.535704 0.090058
很/dD 0.735204 -0.163429 -0.516538 -0.281546 -0.566076 0.687347 0.261002 -0.091487 0.160223 -0.036703 0.017225 0.385250 0.028666 -0.271946 -0.463820 0.064224 -0.093328 -0.257595 0.572095 -0.209105 -0.676124 -0.118288 -0.299501 0.555980 0.356197 -0.160649 0.338808 0.401387 0.410235 0.083130 -0.101852 -0.442696 -0.032782 0.045313 0.127065 0.074460 -0.167614 -0.358683 0.132748 -0.054167 -0.514864 -0.013571 0.568566 0.233228 0.569302 -0.503686 0.291543 -0.075219 -0.343856 0.426478 0.494079 -0.223935 0.190279 -0.825089 0.177544 0.012576 -0.174078 0.404806 0.197660 0.258394 0.161327 0.132267 -0.515199 -0.499239 -0.035804 -0.104145 0.926479 0.224448 -0.176034 0.254778 -0.477343 0.478375 0.640036 0.100116 0.041342 -0.165061 0.017839 0.454758 -0.574756 0.218695 0.291767 0.316972 -0.179753 0.313134 0.736589 -0.257967 -0.517210 0.058160 -0.196157 0.412656 0.733334 0.080026 0.209681 0.410424 -0.203186 0.487309 -0.183500 -0.026358 -0.483876 0.076966
三/m 0.845143 -0.171305 -0.606332 -0.316451 -0.636126 0.766315 0.293041 -0.106657 0.174925 -0.038902 0.024254 0.446206 0.031502 -0.314857 -0.529034 0.068329 -0.104424 -0.296256 0.654401 -0.235149 -0.763034 -0.140093 -0.325782 0.621181 0.400608 -0.176561 0.386182 0.460037 0.478021 0.081167 -0.103119 -0.513567 -0.042759 0.065794 0.131752 0.073099 -0.195820 -0.417382 0.140955 -0.068831 -0.594470 -0.024196 0.637882 0.268851 0.649846 -0.589236 0.339477 -0.095242 -0.397230 0.492145 0.576827 -0.255739 0.206982 -0.939146 0.204601 0.029386 -0.198689 0.459339 0.225860 0.298443 0.179987 0.152933 -0.595904 -0.558857 -0.045768 -0.120444 1.065204 0.268203 -0.210009 0.295197 -0.551312 0.542802 0.733268 0.126853 0.044483 -0.194000 0.013439 0.527869 -0.651513 0.243797 0.333823 0.359817 -0.205208 0.359838 0.858532 -0.292622 -0.583799 0.069246 -0.232348 0.472563 0.848223 0.082340 0.239756 0.458935 -0.225823 0.548417 -0.213912 -0.034053 -0.559298 0.099292
出/v 0.809039 -0.160190 -0.560662 -0.305125 -0.604428 0.731916 0.279301 -0.093098 0.176561 -0.048801 0.022699 0.423017 0.035973 -0.298227 -0.501120 0.072306 -0.102444 -0.288594 0.619864 -0.219573 -0.728445 -0.142832 -0.319795 0.592227 0.388602 -0.166474 0.362995 0.430732 0.458410 0.080880 -0.106637 -0.480335 -0.036493 0.061273 0.130472 0.073791 -0.187906 -0.400642 0.140932 -0.063370 -0.567747 -0.023553 0.612729 0.255136 0.614645 -0.546351 0.317149 -0.083406 -0.378266 0.464627 0.537794 -0.249997 0.205968 -0.894014 0.204285 0.024189 -0.182416 0.434726 0.225216 0.287973 0.168268 0.147407 -0.565257 -0.533033 -0.042852 -0.110121 1.013837 0.239400 -0.205750 0.276466 -0.529026 0.523938 0.687840 0.105484 0.047762 -0.188124 0.019671 0.492675 -0.627375 0.234025 0.311014 0.350864 -0.188510 0.335957 0.814315 -0.274202 -0.561042 0.068073 -0.225653 0.444763 0.799313 0.084689 0.225033 0.439030 -0.214747 0.528948 -0.193357 -0.024252 -0.525920 0.094073
被/p 0.821731 -0.169769 -0.572874 -0.308109 -0.607259 0.750363 0.286139 -0.106771 0.167613 -0.048280 0.017118 0.435847 0.033854 -0.297923 -0.517168 0.070793 -0.107018 -0.279295 0.632967 -0.234150 -0.745812 -0.144559 -0.320314 0.605749 0.396654 -0.169461 0.375663 0.435982 0.463236 0.088233 -0.112389 -0.484974 -0.031488 0.062791 0.125048 0.081577 -0.188072 -0.402092 0.141987 -0.061501 -0.573041 -0.030020 0.622050 0.251913 0.633334 -0.554798 0.320305 -0.080254 -0.375404 0.474651 0.548318 -0.252018 0.208146 -0.910490 0.208558 0.026250 -0.182193 0.442072 0.226198 0.281774 0.175923 0.146536 -0.571279 -0.549634 -0.043247 -0.119653 1.022344 0.253694 -0.208332 0.285308 -0.538347 0.530532 0.703218 0.106702 0.055616 -0.189852 0.012093 0.503923 -0.627522 0.230118 0.325183 0.347908 -0.190499 0.348363 0.818598 -0.281213 -0.566433 0.066672 -0.228872 0.449311 0.804999 0.082275 0.223250 0.438047 -0.225145 0.528232 -0.202193 -0.028496 -0.535045 0.103984
世界/n 0.840921 -0.162708 -0.590727 -0.313223 -0.621949 0.763100 0.297188 -0.093806 0.169710 -0.044809 0.020800 0.442018 0.038994 -0.306537 -0.519548 0.080198 -0.112697 -0.284979 0.648688 -0.238132 -0.754797 -0.141288 -0.326875 0.615513 0.411500 -0.170906 0.374131 0.459210 0.464268 0.077739 -0.108412 -0.505291 -0.041356 0.073821 0.128084 0.080101 -0.185330 -0.409089 0.153012 -0.068493 -0.591808 -0.023043 0.624238 0.257938 0.638482 -0.583037 0.317720 -0.096953 -0.392275 0.485804 0.569863 -0.245376 0.201500 -0.940501 0.209058 0.030727 -0.189432 0.459123 0.227649 0.287349 0.180942 0.145481 -0.603658 -0.559017 -0.044411 -0.129111 1.042255 0.276084 -0.206333 0.291163 -0.545952 0.540450 0.710966 0.110551 0.046209 -0.189040 0.010480 0.529673 -0.645360 0.237481 0.329752 0.361769 -0.201556 0.347995 0.837677 -0.294897 -0.578302 0.068142 -0.239613 0.468069 0.841419 0.090553 0.232721 0.459225 -0.224376 0.538570 -0.202910 -0.033367 -0.556733 0.116191
？/wE 0.873602 -0.183424 -0.617954 -0.330430 -0.676610 0.805189 0.313712 -0.109732 0.192942 -0.040768 0.034551 0.463591 0.024932 -0.325752 -0.557121 0.066093 -0.117918 -0.316794 0.676745 -0.243708 -0.802159 -0.156484 -0.348182 0.662425 0.421436 -0.193280 0.406776 0.463626 0.492309 0.094934 -0.114943 -0.522391 -0.038608 0.058696 0.146885 0.078507 -0.207364 -0.441205 0.150912 -0.076186 -0.608760 -0.034661 0.680701 0.284697 0.685032 -0.591771 0.341931 -0.084206 -0.410509 0.505566 0.593298 -0.277680 0.223777 -0.972803 0.223875 0.023335 -0.204405 0.477417 0.248950 0.321918 0.192348 0.169537 -0.608984 -0.590246 -0.043935 -0.110747 1.109681 0.261663 -0.222903 0.296353 -0.584317 0.578492 0.764304 0.121228 0.057501 -0.211665 0.013928 0.546383 -0.690072 0.265345 0.345625 0.375480 -0.198142 0.370991 0.884998 -0.300362 -0.616099 0.073698 -0.228114 0.504463 0.877666 0.096477 0.249308 0.482427 -0.235027 0.593769 -0.208450 -0.023389 -0.579892 0.102665
地区/n 0.814921 -0.152407 -0.575729 -0.300064 -0.582157 0.726113 0.276202 -0.091268 0.164079 -0.036622 0.005069 0.433253 0.037227 -0.288702 -0.498075 0.076700 -0.102776 -0.281930 0.616293 -0.229770 -0.723514 -0.124093 -0.318199 0.582643 0.391780 -0.164419 0.364922 0.446126 0.440006 0.067345 -0.112982 -0.490847 -0.046351 0.063802 0.124359 0.074075 -0.188267 -0.386312 0.139284 -0.068879 -0.568566 -0.019068 0.593340 0.247470 0.606626 -0.568776 0.308002 -0.085173 -0.370308 0.466197 0.541951 -0.244253 0.195054 -0.890744 0.199951 0.042491 -0.176796 0.445784 0.208853 0.264145 0.170861 0.139730 -0.570387 -0.532261 -0.044948 -0.122994 0.994089 0.269343 -0.200623 0.277284 -0.527662 0.511905 0.684130 0.108989 0.040480 -0.181120 0.013617 0.510402 -0.610789 0.214065 0.322792 0.336927 -0.194834 0.338381 0.805527 -0.283061 -0.555666 0.060142 -0.227291 0.433095 0.804692 0.079794 0.229176 0.437960 -0.223335 0.516543 -0.194738 -0.039185 -0.538531 0.118418
会/vM 0.853571 -0.178655 -0.597411 -0.315696 -0.645151 0.784136 0.304094 -0.102934 0.175128 -0.047488 0.025032 0.445898 0.023502 -0.311310 -0.531175 0.073711 -0.110954 -0.305524 0.656654 -0.235814 -0.777899 -0.150695 -0.330943 0.634331 0.408227 -0.182879 0.396187 0.449564 0.479197 0.090148 -0.117497 -0.505747 -0.040741 0.059394 0.142073 0.080914 -0.194609 -0.424339 0.150915 -0.067984 -0.596611 -0.018900 0.647678 0.258598 0.651865 -0.569896 0.334413 -0.083231 -0.398778 0.491672 0.580022 -0.259952 0.215305 -0.951973 0.218489 0.026207 -0.200973 0.463785 0.232307 0.304663 0.176854 0.159580 -0.593808 -0.569832 -0.044812 -0.113539 1.071156 0.256877 -0.205820 0.296117 -0.563363 0.551047 0.731116 0.102865 0.055961 -0.204008 0.016380 0.529504 -0.659751 0.245535 0.329691 0.370942 -0.199519 0.356949 0.856357 -0.290783 -0.591906 0.071715 -0.232132 0.471583 0.851864 0.087887 0.238833 0.470273 -0.232629 0.562304 -0.202730 -0.028306 -0.559173 0.097949
通过/p 0.918866 -0.182214 -0.645240 -0.335745 -0.671192 0.827701 0.319042 -0.105896 0.194793 -0.050519 0.015968 0.487122 0.040859 -0.341127 -0.567891 0.086414 -0.125234 -0.313629 0.707048 -0.255435 -0.817090 -0.147241 -0.362810 0.666430 0.444996 -0.190725 0.414112 0.501687 0.507575 0.085726 -0.124848 -0.548291 -0.045468 0.073451 0.143212 0.078640 -0.202840 -0.445517 0.160600 -0.070560 -0.634493 -0.029776 0.681259 0.277692 0.695724 -0.631721 0.343280 -0.101580 -0.414568 0.527803 0.617246 -0.271110 0.228368 -1.019109 0.223467 0.041075 -0.208468 0.498563 0.243551 0.313675 0.191735 0.158692 -0.652104 -0.607548 -0.050831 -0.140268 1.141229 0.293615 -0.230999 0.319566 -0.595944 0.579343 0.780129 0.131493 0.054552 -0.206040 0.020414 0.569463 -0.693609 0.250582 0.365725 0.382677 -0.221690 0.374956 0.911019 -0.316062 -0.630032 0.073835 -0.265217 0.495938 0.911471 0.098588 0.257264 0.494172 -0.251252 0.588454 -0.216526 -0.035602 -0.604663 0.128776
重要/a 0.752547 -0.149480 -0.524157 -0.279378 -0.555989 0.678992 0.263639 -0.086996 0.158785 -0.036342 0.012437 0.401940 0.022841 -0.276907 -0.468415 0.071278 -0.091543 -0.269989 0.569565 -0.202563 -0.683569 -0.126700 -0.297034 0.558562 0.366194 -0.161266 0.344323 0.409387 0.416240 0.072684 -0.099602 -0.441265 -0.038519 0.059824 0.121896 0.059015 -0.175858 -0.367010 0.130228 -0.066823 -0.523833 -0.015385 0.563190 0.234414 0.577525 -0.523580 0.286041 -0.083934 -0.346070 0.439119 0.506446 -0.232186 0.184192 -0.828838 0.178749 0.026310 -0.171813 0.402029 0.201071 0.259470 0.162704 0.126033 -0.533377 -0.492051 -0.036458 -0.097206 0.938191 0.229656 -0.176463 0.264116 -0.493589 0.484054 0.640024 0.105211 0.033715 -0.168453 0.015391 0.472448 -0.571549 0.217279 0.298637 0.327414 -0.182513 0.319766 0.756298 -0.269501 -0.526771 0.062929 -0.213442 0.420730 0.746889 0.075161 0.213917 0.410557 -0.201377 0.495262 -0.187024 -0.024467 -0.490068 0.091144
